2405 64
489 0.41632938 0.07488229 -0.07430427 0.33039185 -0.22170722 0.11704102 0.37091106 0.56942093 -0.0064528836 -0.03379359 -0.18449575 0.0015424761 0.08290588 -0.067542754 0.22246556 -0.38029438 0.35072362 0.16173172 0.14585719 -0.2886237 0.5840632 -0.050485525 -0.0005511912 0.3471133 0.09878723 -0.06127839 0.14999448 -0.016722271 -0.20674963 -0.031016238 0.2083436 -0.1848741 0.080170006 -0.14170414 0.2762773 0.021570515 0.15526125 -0.013069737 0.24197492 0.15267108 0.088477015 -0.021910869 -0.19217305 -0.25807792 0.002138384 -0.28089875 0.057256486 -0.4200713 0.26559925 0.313797 -0.62375695 0.6240117 0.08160888 0.023169052 -0.01585894 0.063543275 -0.19171345 0.17730142 0.23353676 0.16713335 -0.195232 -0.4472814 0.35689437 0.63873094
393 0.26909438 0.13079858 0.38004956 0.12988524 -0.071694344 0.2674599 0.0706907 -0.17208658 0.36678484 -0.09493531 -0.3052657 0.029306004 0.020696055 -0.12706204 0.18411727 -0.26411572 -0.09602041 0.06031527 -0.14229095 0.58974165 -0.20253737 0.0067923176 -0.28744137 -0.05369586 -0.26720056 0.08658539 -0.28182486 0.14358816 0.25786448 0.25678736 0.30787957 0.16375485 -0.14595662 -0.44300237 0.0019187211 0.12520263 -0.29911843 0.27937844 0.015580191 0.22312547 -0.53233844 0.037035536 0.19077228 0.36710924 -0.022394566 -0.5660509 0.3758557 -0.47796014 -0.16554971 0.0067823473 -0.10909695 0.32254174 0.4864676 0.32888377 0.26990256 -0.2603011 -0.18057324 0.06364358 0.06692789 0.33284804 -0.22197366 0.11848982 0.21392685 0.17614473
445 0.11791389 0.3506424 0.18645869 -0.09127878 -0.12331511 0.063809 0.19373643 -0.024233013 0.35648194 0.07565633 -0.1124928 0.3507709 0.16745263 -0.66925055 0.27475557 -0.16060628 -0.3490223 0.31162652 -0.042908344 0.00081878895 0.34324023 -0.055043355 -0.58852506 -0.15593955 -0.0074629583 0.026801107 0.025279673 0.02385888 -0.009272589 0.16505091 0.17180581 0.1291769 0.032145996 -0.24080311 -0.1415794 -0.40573674 -0.36199754 0.0824676 0.3961181 0.17467083 0.1652588 -0.19389234 -0.15552457 0.3531381 -0.29258057 0.07379052 0.18759927 -0.021313835 0.040696714 0.067464426 -0.033293787 -0.12243125 0.15405972 -0.066182725 -0.17183283 -0.054166384 -0.31027249 -0.20008945 0.35306293 0.0699307 -0.30171847 -0.4113167 0.040440667 0.51551694
526 -0.16312839 -0.4309387 -0.39518183 0.102226414 0.122737825 -0.09846943 0.21764922 0.115511276 -0.2637237 -0.25170502 -0.21204272 -0.35417777 -0.014456067 -0.61449665 -0.21752451 -0.07558943 0.3659709 0.078684464 -0.015282753 0.30225685 0.27091575 0.1763381 0.394682 0.40469712 -0.31760144 0.27009258 -0.018396733 -0.09646172 -0.019955121 0.052787364 0.5306119 -0.17632641 0.4358778 -0.1707881 0.22614601 -0.060162675 -0.06789302 -0.51562864 0.3586523 0.5437041 -0.013915239 -0.5269421 0.22067024 -0.26242635 -0.15561807 -0.27709213 -0.052718442 -0.47422975 -0.31358474 0.5053054 0.09387387 0.21065272 0.46877828 -0.22085086 -0.3295107 -0.3150087 -0.20885184 -0.45399946 0.31074938 0.08464481 -0.08247856 -0.06573137 -0.48878333 0.25612825
708 0.38033468 0.16521206 0.15453957 0.059481014 0.07847052 0.6138201 0.55290616 -0.37592894 -0.19068506 -0.07918596 0.03744874 0.0038735822 0.1487533 -0.09036426 0.38173828 0.5300694 -0.46492973 0.42438594 -0.1736471 0.29691383 0.120731756 0.23587076 0.2056515 0.1990299 -0.24584787 -0.17758098 -0.02720917 0.10173502 -0.05073928 -0.18702187 0.63762957 -0.094858654 0.19038884 -0.35569984 0.08609395 -0.05799415 -0.35708085 0.120139755 0.19384092 -0.3748041 0.1776671 -0.29922464 0.39305896 0.041803844 -0.3488271 -0.15124539 0.11157931 -0.39806584 0.2347775 -0.04332537 0.20836857 0.57071173 0.020373344 0.032247268 0.16170634 -0.00962472 0.24725564 0.24792494 0.012692736 -0.20245442 0.17529453 -0.18393129 -0.03266561 0.6152599
400 0.23898983 0.42574933 0.5459744 0.17549744 0.019475289 -0.35093537 0.22432396 0.2224922 0.15280259 0.23448846 0.23234263 -0.35285273 -0.1256656 -0.26406324 0.21040508 -0.09477679 -0.6846903 0.30878007 -0.2860423 0.26216942 0.12183605 -0.11210633 0.38112625 -0.031233689 -0.20990337 0.14172867 -0.2505923 0.6673712 -0.031856533 0.047522966 -0.042261004 0.3614312 0.0743051 -0.3521929 0.011707055 -0.06320306 -0.16894117 0.05507889 0.18824239 0.053988177 -0.24377796 -0.117621854 -0.123939656 0.20827036 -0.06787104 -0.29597023 0.08111706 -0.16519108 0.12418506 -0.096617036 0.03198554 0.10691207 -0.055787668 -0.31829166 -0.14619899 -0.28099534 -0.46874556 0.39865246 0.1629872 0.46523753 0.39404723 -0.45423058 -0.30051768 0.7387496
43 0.0768124 -0.18067326 0.15965956 0.067686155 0.09806539 0.2855359 0.30565292 -0.16906404 -0.030278452 -0.29835546 0.16026187 -0.13153717 -0.11150424 -0.14007616 0.07285596 -0.70967996 -0.11140583 -0.06827972 -0.22789058 0.008950949 0.18701816 0.11024072 0.0150261205 -0.119363375 -0.052589707 0.4805662 -0.48783273 0.38278458 -0.5045115 0.23169275 -0.15884045 -0.21327005 -0.3859363 -0.47517067 0.7256429 -0.09799948 -0.6305096 0.043065775 -0.1401886 0.65425664 -0.09732892 -0.086864285 -0.01472778 0.0901785 -0.24093719 0.08499262 0.5238642 -0.5957957 0.4321741 -0.13934976 0.26629964 0.059735812 -0.19208328 -0.16680832 0.21138944 -0.39569467 -0.28655162 -0.60777473 -0.32167724 0.041930556 -0.14166294 0.16695732 0.074130036 0.3314447
624 0.45860687 -0.05091801 0.13598193 -0.037330832 0.748242 0.29388973 0.34256613 -0.029397167 -0.47718507 -0.28981236 -0.13191478 -0.35966054 -0.029887656 -0.7545984 0.0297804 -0.042082783 0.10688544 0.29171053 -0.08611378 -0.10172086 -0.09644101 0.0808876 0.067121506 0.53971803 0.0040952233 0.040581148 -0.11000382 -0.21185608 -0.28777492 -0.2815979 0.2656843 0.19220823 0.24837959 -0.2039429 0.1278176 -0.5817715 0.25186878 -0.41814047 0.20659053 0.7405702 -0.5194323 -0.30649018 0.21764511 -0.5531817 0.35045758 -0.27135336 0.46709472 -0.47198993 0.19686724 0.62890756 -0.22400953 0.45348093 0.38085264 -0.39182413 -0.15201339 -0.41266623 -0.97450733 -0.4725575 -0.09193064 0.21016721 0.07152383 -0.2880938 -0.42413 -0.34369808
1412 0.5727502 -0.6536135 0.5340716 -0.09929826 0.25473848 -0.1085695 -0.06883329 -0.34945852 -0.15619777 -0.34917822 0.27314973 0.67663676 0.096691966 -0.26808286 0.1780182 -0.3416538 0.32783172 0.31240207 -0.68290097 0.5996093 0.45767468 0.22880103 -0.083157584 0.23172733 -0.10787044 -0.07016566 -0.24402075 0.16343419 -0.2501162 -0.24334487 0.28385904 -0.30414203 0.042795684 -0.023444751 -0.010329305 0.07854882 0.07235368 0.06204391 -0.19351366 0.4204039 -0.32858637 -0.088830814 0.026070405 -0.19134526 0.5889285 0.01852364 0.18800572 -0.35073614 -0.2919522 -0.10702006 -0.11323001 -0.008472573 -0.21724209 -0.022238877 -0.09322452 0.3053994 -0.879666 -0.20572841 -0.15338123 -0.6379346 -0.2761201 0.16675109 0.43169037 0.54501694
525 0.07366521 -0.17292824 -0.3034837 0.39088514 -0.036948472 -0.28156212 0.5355305 -0.087661795 0.33455798 0.13418315 -0.20128666 0.104026064 -0.006574102 -0.4233176 -0.005168862 0.036850024 -0.30409157 0.29737633 -0.4385068 0.16639541 -0.2168547 -0.033878762 0.15017635 -0.28767136 0.08112456 0.13608243 -0.30502144 0.66346365 0.33283675 0.07281813 0.40192086 0.004597951 -0.36930078 -0.23588082 0.4131306 0.09014232 -0.35085523 0.30634162 -0.030889492 0.31582475 0.29414126 -0.57111114 -0.2112795 -0.1823329 -0.3972874 0.029973568 0.65260553 0.25368673 0.19378546 0.3761445 0.032204643 0.22276369 0.19483092 -0.23100823 -0.061651 0.13236032 -0.45764017 0.008499919 0.06425715 -0.0966223 0.120892525 -0.579269 0.22980289 0.3234654
1647 0.5690248 -0.06999163 -0.25015497 -0.07007133 0.31350398 0.37700444 -0.08753518 0.011210598 0.15726277 0.10393919 -0.03804191 -0.29048598 -0.032340456 -0.30363378 0.0428143 -0.085729085 -0.028455656 0.23303843 -0.15382276 0.4909 -0.29732195 -0.14524487 0.15058903 -0.107185744 -0.6952447 -0.36407593 0.3219996 0.104222395 -0.020544786 -0.029888071 0.27672172 0.24996226 -0.2669283 0.07451959 -0.03225618 -0.08472855 -0.79442555 0.34493378 0.16793261 -0.22679327 0.21360485 -0.23954126 0.09493988 0.017876863 -0.32946125 -0.029246846 0.19247082 -0.6602825 0.05164296 0.8575567 0.3939609 0.4316142 0.2014566 -0.3428044 0.03904095 0.2531308 0.24100138 0.29992664 0.5624304 0.24055389 0.10538784 -0.06337573 0.19629353 0.8084743
509 0.013153084 -0.16425055 0.1549328 0.53252107 0.39061403 0.19758405 0.42432427 0.68880063 0.33721384 0.094771884 0.26067796 0.22975872 0.108142965 -0.245155 0.6286462 -0.21995002 0.23529167 0.19929595 -0.087078154 0.20790355 -0.05190417 0.23924737 -0.20393056 0.3167532 -0.40887403 0.76976746 -0.5281545 0.17187943 -0.22945671 -0.27715006 0.3130958 0.013642601 0.16148652 -0.056576304 -0.05301263 -0.025062464 0.47440782 -0.34167922 0.3134704 0.3596204 0.35499188 0.053717356 0.0836513 -0.056341548 0.06337247 -0.14384085 -0.02504713 0.060633738 0.21172199 0.44243577 -0.13713005 0.28952906 -0.118988276 -0.066116616 -0.29059806 -0.19772735 0.19679962 0.37959754 -0.17435083 0.27118373 -0.21969837 0.04499142 0.25119296 0.5705641
235 0.06312459 -0.33883694 0.27681658 -0.45235458 -0.023315927 0.13149442 -0.069406375 0.07466419 -0.19558206 -0.1282724 -0.17573658 0.2807634 -0.14970681 -0.20549995 0.2439857 -0.02548966 0.36981234 0.107292235 -0.523716 0.38492128 0.25685003 0.34095675 -0.27042636 -0.046765793 -0.2081328 0.051175326 -0.1004136 0.20529284 -0.6033733 0.11622357 -0.1504821 -0.24035145 -0.37772253 -0.5085549 0.09208164 -0.028715696 -0.32545945 0.0009924425 -0.117891416 0.018935118 0.32758915 -0.03263531 0.11067144 0.40046716 0.9354622 0.048841316 -0.39773476 -0.5581643 0.19231929 0.31020558 -0.1714776 0.24782872 -0.41179663 0.081958726 0.46026263 -0.36073357 -0.67309695 -0.5980713 0.51829404 -0.46564594 0.13912565 0.048359044 0.11133758 0.5349807
1525 -0.29362065 -0.017424079 0.06865566 0.45242032 0.29364896 -0.05526074 0.21888092 -0.051139306 -0.058995787 0.59625894 -0.14209388 -0.04152511 0.048176043 0.28468403 0.36672482 -0.24221057 0.08299701 0.3711587 -0.056142885 0.3180941 0.90289503 -0.16565806 0.25958958 0.74999076 -0.32578918 0.030688444 0.02045106 0.37992787 0.07464542 0.044832014 0.35106656 -0.1482298 0.21789663 -0.028173415 -0.03570076 -0.41613746 -0.32718635 -0.1992077 -0.010371341 0.43533406 0.19134964 -0.11944812 0.19194299 -0.25171033 -0.15170257 -0.4664968 -0.16835919 -0.06902726 0.063533865 0.42479438 0.40973648 0.44066915 0.08523812 -0.43060172 0.24839923 -0.4146727 0.025805078 0.062192995 0.076298766 -0.009502964 0.13351607 -0.41860893 0.5135837 0.2609199
1467 0.48051468 -0.49144536 0.3047991 -0.16529022 0.10613392 -0.56770736 -0.20865482 -0.26644316 -0.27474257 -0.11611737 -0.15099524 0.38346365 -0.058460172 -0.5389346 0.5598479 -0.19365227 0.32077283 0.099860914 -0.5498779 0.4075869 0.4467395 -0.32758135 -0.061407477 -0.020991383 -0.11852623 0.29213622 -0.3763414 0.2658402 -0.27295744 -0.30658126 0.33099034 0.009021918 -0.5437754 -0.31352898 0.12315899 0.20665689 -0.13617653 -0.13964766 -0.059625134 0.18502139 -0.27164796 -0.17787641 0.18718597 0.1270977 0.6225595 0.46216002 -0.31106183 -0.42193344 -0.19913182 0.12977491 -0.31133214 0.33281878 -0.40371835 -0.4256545 0.08372871 0.043459296 -0.48297742 -0.31819493 -0.13204037 -0.6392691 -0.29435608 -0.07350488 0.41892806 0.15346983
1717 -0.08764997 0.6384302 0.032967187 -0.24361622 -0.042345513 0.5230622 0.16231318 -0.0004626972 0.27465242 -0.26396704 0.25485137 -0.17713517 -0.123877056 -0.4776772 0.030521037 -0.34441882 -0.60566217 0.11230558 -0.06745369 0.39859965 0.033287436 -0.18717757 0.13582729 -0.38335693 -0.0043240706 -0.0028869794 -0.41984993 0.3002104 0.15151858 0.54046226 0.41787666 0.06633658 0.34898642 -0.32059085 0.3139554 0.21442264 -0.55648446 0.32073775 0.62659055 0.45000964 -0.2552377 0.013864826 -0.19609489 -0.56778824 -0.10876932 0.3402321 -0.09566288 0.17346431 0.1732476 0.49098685 -0.47722527 0.7420178 -0.045307383 -0.09970617 0.023035347 -0.09337348 -0.113995 -0.10423014 0.18209854 -0.053409047 0.1846634 -0.00020198002 0.4138252 0.38771448
471 0.30083904 0.5427636 0.11971482 -0.27993572 -0.038835622 -0.22591731 -0.13779147 0.02986063 0.14684497 0.007895912 0.47598234 -0.002152252 -0.20468432 -0.5623052 -0.12354775 0.023399727 -0.337448 0.2006127 -0.080744915 0.5159634 -0.33638942 0.252318 -0.5746136 -0.102534994 -0.28578323 -0.088495 -0.34333047 0.034702577 -0.10322868 0.2906144 0.70281756 -0.37960532 -0.03205314 -0.5047756 0.2485419 0.14943835 -0.46579406 0.09148889 0.17492719 0.21706928 -0.10580227 0.29439127 -0.42003477 -0.38881135 0.020728696 -0.34658596 0.44571006 0.08009047 0.24852595 0.76947606 -0.5880537 0.47051048 0.102635175 -0.4925435 -0.057680555 0.026290156 0.32379338 0.62961274 0.14539032 -0.13906007 -0.34585044 0.33320007 -0.13001701 0.3178446
228 0.13882211 -0.58543265 0.80949455 -0.4074347 0.1619061 -0.07519365 0.07130042 -0.22125539 -0.1477264 -0.061917886 0.058920473 0.13814619 0.06461523 -0.45434782 0.27063146 -0.034870405 0.46751758 0.13584608 -0.5313854 0.32948533 0.29621434 0.15564138 -0.36453035 0.26890412 -0.06644992 -0.02108153 -0.26225066 -0.20262952 -0.67766976 -0.09065717 0.051260725 0.13670294 -0.43193734 -0.26428136 0.16346845 0.2910548 -0.46442404 -0.031060614 -0.012739588 0.29856873 0.087200224 -0.021045307 0.17616278 0.16651489 0.8060733 0.16906856 -0.12097708 -0.11010093 0.07345868 0.45018166 -0.24008495 -0.07499075 -0.34194827 0.1579548 0.5111486 -0.30976427 -0.67196876 -0.23976517 0.56519073 -0.46933153 0.2109978 -0.020238822 0.15097462 0.19305597
682 0.31379503 -0.17155702 -0.020517066 -0.35977662 0.31805322 -0.0008533195 0.129032 0.08511293 0.12380796 0.37140885 -0.31933704 -0.22902529 0.15439312 0.04602307 0.37753403 -0.4411878 0.3375257 0.43611228 -0.06756802 -0.28113243 0.575948 0.25938943 -0.48791653 0.3294652 -0.6393013 0.39481732 -0.090748236 0.72148335 -0.28689712 0.45143747 -0.053314477 -0.23703356 0.16159047 0.16135997 0.12688121 0.06530682 -0.43688685 0.2892919 0.31409863 -0.43081808 -0.070457585 -0.3023533 -0.37956497 -0.22236103 -0.07080957 0.085319884 -0.048818007 -0.06554085 0.3387027 0.342553 0.17512353 0.1323393 0.77269757 0.19217496 0.12227147 -0.05564582 -0.26337376 -0.24917667 -0.31154594 -0.08808519 -0.2253584 0.11520876 -0.402068 0.5463472
458 0.31147918 0.4073525 -0.03993235 0.0009792062 0.28936717 0.35116684 0.5349918 0.30455768 -0.343217 0.17247114 -0.40264767 0.23452851 -0.25179192 0.007755437 0.05258093 -0.27546012 -0.35486293 0.22380027 -0.4830921 0.017980125 -0.049043994 0.46271515 -0.14536722 -0.27395964 -0.26511493 -0.1532314 -0.65773755 0.61351544 0.00976089 -0.28994685 0.75814134 0.17318223 -0.11814987 0.14243272 0.26089835 -0.15292089 -0.43268165 -0.19944702 0.22618508 0.049709488 -0.23520137 -0.4989626 -0.023126014 0.30815417 -0.13839899 -0.5414027 0.2229657 -0.18743819 0.2300498 -0.09111575 0.14288756 0.062435508 -0.16397625 0.026581584 0.44954774 -0.22521129 -0.5988154 -0.2508671 -0.05767251 0.0037199787 -0.01888719 -0.17530373 -0.09546849 -0.051651064
713 -0.10170111 0.029638436 -0.09822585 0.4090886 -0.07007737 -0.28104284 0.77061194 -0.57729906 -0.14883599 -0.044491712 -0.13854033 0.41842937 0.119217806 -0.4459497 0.28796947 -0.018426651 -0.26385063 0.72102123 -0.45249718 0.0127728125 -0.096946396 0.28125504 -0.3428503 -0.023240037 -0.035752133 -0.06362395 -0.18925355 -0.059891067 0.2581991 -0.07934559 0.39743564 0.16287811 -0.60572356 -0.34735346 0.26291826 0.5028717 -0.5792181 0.1428288 0.48220348 -0.08231389 0.2083649 -0.74421835 -0.271773 -0.034879815 0.41768178 0.52765954 -0.31291687 -0.31753516 0.40422237 0.1175853 0.26121914 0.6294007 0.4324536 -0.2785239 -0.030093012 0.19340666 -0.42328078 0.44220304 0.026680626 -0.019650724 -0.02702626 -0.19489321 -0.11564782 0.26661396
2288 -0.25945818 -0.007091182 -0.11360037 -0.15821704 0.43414474 0.2778429 0.5067523 0.31221148 -0.18338895 0.24961817 -0.03594935 -0.22692224 0.08704287 -0.07092367 -0.105628185 0.25113517 -0.1571317 0.4380068 -0.20235135 0.6279473 0.380063 -0.43715855 0.058959525 0.4876413 0.13872296 0.35662973 0.176419 0.051323555 -0.015397954 0.12974228 0.33548766 0.023614226 -0.34419546 -0.06903385 0.15688857 -0.0878508 -0.27842167 -0.10992617 0.46644 0.54039395 0.15489739 -0.4586789 0.34995514 0.19315754 -0.064387806 -0.74957997 0.30081496 -0.11357008 -0.1850778 -0.105984464 -0.19109283 0.6625532 0.8961967 0.4196632 -0.47370327 -0.0291508 -0.5151779 0.09590791 -0.20043966 -0.2290695 0.24475847 -0.037981775 0.465446 0.4398575
391 0.27972776 -0.7665869 0.13626377 -0.25536856 0.38819957 0.22786246 -0.14536855 -0.21330479 -0.20294799 0.045045298 -0.00047011502 0.068896696 -0.31784806 -0.31843513 0.3767929 -0.27664727 -0.299272 0.29581618 -0.032206316 0.07494624 0.39593807 0.41813353 -0.18636185 -0.2692188 -0.28252575 0.34022653 -0.2701119 0.30370075 0.19957823 0.3072262 0.2322788 0.45808265 -0.122093506 -0.60783404 0.5951992 -0.015454981 -0.16934924 -0.1390411 -0.026406435 0.012916207 -0.15996085 -0.18891959 0.09622205 -0.09828 -0.036624484 -0.19111888 0.37854645 -0.8869978 -0.38691878 -0.2726084 0.16011566 0.11241708 -0.5751425 -0.51438755 0.03494587 0.05763911 -0.08416292 0.2255601 -0.071274586 -0.038474537 0.26101857 0.22053482 0.36377499 0.22991303
1465 0.43983003 -0.5004834 0.3321563 -0.076768704 0.41088992 -0.2536849 -0.13087851 -0.33052737 -0.09433905 -0.07182226 0.100576475 0.46206912 -0.3505946 -0.70678705 0.5974033 -0.102334 0.22075273 0.2523177 -0.5930361 0.45177025 0.2895074 -0.025814319 -0.19381835 0.31451517 0.014378862 0.32712683 -0.40498644 0.038576208 -0.03277628 -0.16714276 0.20964755 -0.06407893 -0.24326281 -0.29875645 0.08475267 -0.05433667 -0.082123525 0.11189439 -0.16408251 0.27677798 -0.2152071 -0.12052776 0.33135602 0.004422436 0.9258761 0.24535562 -0.05439 -0.51283014 -0.2523657 0.4431403 -0.34000185 -0.15196978 -0.40952885 -0.23478226 0.1637823 0.4118677 -0.59147984 -0.4820531 0.16842173 -0.70376676 -0.23854434 0.014505433 0.32939562 0.33032265
602 0.693868 -0.045496963 0.10727023 0.20589362 0.6670152 0.19090874 -0.1733917 0.0146187935 0.47110438 -0.19672929 0.13053295 -0.4263988 0.06262294 -0.30946133 -0.08280953 -0.092160635 0.059024785 0.54112035 0.009141513 0.04691945 0.10017715 -0.04089925 0.23772605 0.68537015 0.1851273 0.06267905 0.336216 -0.3130377 -0.07381057 0.18925226 -0.09918801 0.37734804 -0.02897057 -0.31652582 -0.25293502 -0.627784 0.12992506 -0.40546668 0.046569794 0.52243143 -0.4513997 -0.7689467 -0.17700279 -0.32843775 0.35340875 -0.29301336 -0.107423216 -0.112979084 0.35098222 0.2595849 -0.1170753 0.6910365 -0.07208139 0.087114304 -0.26805848 -0.7998236 -0.70966446 -0.07131699 -0.017913451 0.24530421 -0.28246185 -0.22679098 -0.15126972 0.39253023
69 0.41011456 -0.5119493 0.41233942 -0.22126569 0.10562258 0.059457116 0.41267207 0.16414829 0.23610947 -0.21626519 -0.29269546 0.24619913 -0.63882613 0.071545236 -0.22203189 -0.62560135 -0.18225476 0.26761115 -0.16949025 0.4736607 0.18592733 0.51804173 -0.042710617 0.24815026 -0.19767494 0.49530125 0.36904368 0.32579172 -0.25511897 0.1021246 -0.18078804 -0.3424867 -0.34681308 -0.77532643 0.42264816 0.17001913 -0.5636363 0.025854904 0.04147917 0.5960984 -0.027233638 -0.030876033 -0.08202562 0.11047414 0.18381558 -0.08417768 0.10679398 -0.20279431 0.3357668 0.3198254 0.13702986 0.11196208 -0.1504756 0.19071293 0.25746515 -0.17243885 0.03545881 -0.2455385 0.15979633 -0.2872774 -0.11387546 -0.78058106 -0.012391608 -0.28914768
405 -0.03207871 -0.022181876 0.1959853 -0.24988073 0.71147954 -0.05844533 0.27137002 0.41223893 0.09912352 0.26408207 0.03382715 -0.4834177 0.08446242 -0.27208558 0.30642334 -0.59723496 0.38181344 -0.07354145 -0.5102146 -0.23537119 0.14892134 -0.20982262 -0.46463072 0.14355439 -0.30463028 -0.0045810994 -0.02044152 -0.096363984 -0.15626724 0.1900631 0.73271394 -0.090004295 0.4028193 -0.4820491 0.1604363 0.6462026 0.5978779 -0.0355991 0.13285168 0.0044818064 0.57777566 -0.6685938 0.1781405 0.02748866 -0.079270445 0.16818759 -0.18082254 -0.75580555 0.3509551 0.14668854 -0.17473216 0.37743127 0.34100884 -0.13546161 -0.14145985 -0.023849858 -0.065780304 0.19475915 0.054055523 0.32015315 -0.33209768 -0.431195 0.12285145 0.174319
1466 0.37650424 -0.20910707 0.28783277 -0.46357107 0.023665057 -0.30195642 0.3142107 0.14783438 -0.19331665 0.11836905 0.038357634 0.2511544 0.045514725 -0.3196754 0.5441324 -0.050900884 0.11089366 -0.023698326 -0.7354144 0.6919176 0.24151488 -0.19194293 -0.09901279 0.3404758 0.18095142 0.007950464 -0.29012433 0.086016 -0.20492971 -0.077072196 0.2837132 0.061440386 -0.45901754 -0.43969902 0.13654885 0.13132264 -0.067031786 0.016359415 -0.3169278 0.21931246 -0.06775878 -0.18454954 0.18360966 0.002207898 0.7982145 0.27204034 0.013177828 -0.34784248 -0.37358743 0.46347874 0.08038299 -0.08835658 -0.110721804 -0.43348414 0.28466663 0.16981804 -0.71784246 -0.34118298 0.04776168 -0.96171886 -0.42364535 0.08726116 0.075219564 0.280328
1653 0.43447793 0.05611629 0.016395243 -0.21522826 -0.025885921 0.041985966 0.27435222 -0.19010818 -0.5815486 -0.007807377 -0.19790544 -0.30299935 -0.37361476 -0.4816462 -0.07424886 0.15567341 -0.17669635 0.15727001 -0.11725067 0.036122482 -0.1989866 0.5179884 0.039823607 0.061923336 -0.5130513 0.01473343 0.15574163 -0.04250649 0.048060376 -0.1321242 0.8458374 -0.07778935 0.13272637 -0.015179743 0.021042995 0.13299918 -0.65300554 -0.0010843015 0.50267154 -0.05474667 -0.34793565 -0.42675674 -0.08862369 -0.025410546 0.088229656 0.10490229 0.23426159 -0.2054659 -0.08572483 0.6139469 0.6003273 0.4634649 0.38532594 -0.4591555 -0.10549988 -0.15307975 0.24710557 -0.06738864 0.48003945 0.3729524 -0.14360605 0.4340486 -0.20388187 0.7332305
1637 0.09090126 0.11623368 -0.09624899 0.09704967 -0.13040397 0.2611608 0.2939534 -0.13040026 -0.22871113 0.3462886 0.049011014 -0.28314653 -0.4067146 -0.27445775 0.2839037 0.057180274 -0.254226 0.3010663 -0.25659847 0.2844346 -0.15582636 -0.06385059 0.10562219 0.14183317 -0.81481725 0.12105884 0.2786275 0.031993728 -0.06705953 -0.050993826 0.1234578 0.3372612 0.1115782 -0.14858957 -0.20041543 0.25764206 -0.80092186 0.22787653 0.03668299 -0.62700015 0.012244735 -0.40025187 -0.25686008 0.0289748 -0.35542718 0.16672154 0.61435646 -0.78934497 -0.06389807 0.8915205 -0.090534426 0.38643515 0.15960018 -0.39544576 -0.23269962 -0.07259486 0.09904357 0.0073670666 0.38550714 0.3816261 -0.056303117 0.0453363 0.21440674 0.8007897
1445 0.2980941 -0.39035806 0.21976066 -0.049525198 0.36166415 -0.026942026 0.23457381 -0.07828308 -0.4384815 0.030387305 0.09663052 0.5327355 -0.22369656 -0.9141332 0.43811584 0.08332936 0.15240486 0.35038045 -0.519917 0.7455461 0.32784465 -0.07444386 -0.075173885 -0.0022511168 0.09231085 0.004855269 -0.1905523 0.2821635 -0.05152433 -0.30945215 -0.063413404 0.17672282 -0.2838684 -0.114908345 0.15869154 0.08090443 -0.06196608 -0.07225801 -0.35878336 0.24390566 -0.22265723 -0.15995286 0.25304934 0.098816946 0.8356187 0.23766246 -0.4081253 -0.26657435 -0.036417987 0.34265348 0.13911061 0.2746425 -0.16297571 0.031273894 0.36910552 0.026567392 -0.51551384 -0.22849907 -0.1625306 -0.779903 -0.90683836 -0.11592952 0.35984644 0.11690411
476 -0.05995587 0.23284088 0.19046366 0.017268153 -0.23220544 -0.1763695 0.6391837 -0.089934416 -0.07122491 0.13370636 0.35487825 -0.6564019 0.0777433 -0.097464286 0.438675 -0.153721 0.16914546 0.33990473 -0.27251887 -0.08765341 0.3125087 -0.46648306 -0.32856807 0.5553116 0.09019455 0.47667116 0.06341776 0.29267597 -0.4405454 -0.106723055 0.31510726 0.15674625 0.04979876 -0.20146596 0.39856002 -0.14942224 -0.037979268 -0.72392404 -0.28884795 0.4678723 0.24105716 -0.23333497 0.48750332 -0.2840211 0.18070285 -0.15290503 -0.05726111 -0.325615 -0.4358662 0.2322007 0.068388894 0.74299395 0.22082514 0.03439279 -0.64307344 -0.33511958 -0.3378646 -0.25007448 0.07476027 0.030835424 -0.2892969 -0.17131779 0.0039458927 -0.090911426
6 0.35716185 0.1544268 -0.27964565 -0.43161 0.29664114 -0.22692734 0.3076123 0.16638745 0.02549983 -0.3620162 -0.32491335 -0.15221748 0.005692035 0.2021256 0.3866328 0.10808952 -0.14332068 -0.25229052 -0.19645666 0.38083604 -0.291201 0.021470115 0.027573347 -0.24556978 -0.07042941 -0.1879711 0.19898978 0.26454842 -0.45854244 -0.028121034 0.7321763 0.15021588 -0.061764877 -0.2769753 -0.2579844 -0.21255209 -0.747301 0.64869934 0.21955562 0.09876983 -0.13936692 -0.06632198 0.45521522 0.1389369 -0.2352229 0.12559175 0.34021762 -0.032058798 -0.24394664 0.25369784 0.45680144 0.40703645 0.4352926 -0.3570503 0.18015438 -0.20322202 -0.19951081 0.5173561 0.15484297 0.041685045 -0.20757602 -0.09405197 -0.02845033 0.9303959
496 0.20713043 -0.18558136 0.13988818 -0.13543515 -0.19841829 0.1572141 0.113857225 0.55129707 0.023825206 0.307941 -0.17037615 0.11217243 -0.4628844 -0.035793994 0.83153296 -0.30593914 0.54722935 0.652056 -0.3966611 -0.118336484 -0.08401562 0.059217438 0.40272328 0.08502397 0.00632686 0.09263866 -0.75695753 0.36756977 -0.07976889 0.13502558 0.29280424 0.14471747 -0.3596046 -0.3005613 0.26706597 -0.30352622 -0.5757646 -0.37901804 0.45759597 0.3134452 -0.121303715 -0.29551554 -0.08837622 -0.15160377 -0.12291346 0.24971172 0.5568926 -0.53513086 -0.23330401 -0.5027248 -0.16318966 0.018154932 -0.3131898 -0.24825779 0.42774314 -0.23429585 0.290996 -0.06622899 0.032259703 0.05264595 0.13583487 0.053068265 0.04584187 0.13520698
569 0.58427614 0.04971282 0.13974166 -0.26059103 1.0905463 0.19945027 0.07815687 -0.15138727 -0.7488893 -0.1257061 0.15899812 -0.57868576 -0.039675817 -0.9936372 0.014082989 0.2063029 0.040942516 0.26095542 -0.0031676113 0.016232079 0.11295561 0.24024634 0.2743449 0.5652951 0.28749996 0.31594273 -0.27851728 -0.1591534 -0.22049055 -0.31201237 0.26374477 0.2938293 0.296016 -0.32317576 0.039317366 -0.7628035 0.06838858 -0.65057665 0.15749578 0.78077674 -0.5809876 -0.31185094 0.19867212 -0.38163114 0.5151885 -0.028156668 0.33685863 -0.30243057 0.06717805 0.5546596 -0.3507806 0.30481797 0.44780567 -0.43043008 -0.1410128 -0.39631498 -1.104547 -0.6671233 -0.081934914 -0.1108429 0.14773314 -0.112378426 -0.12968916 -0.1990526
1648 0.18495852 -0.04686561 0.19056137 -0.14780551 0.17968628 0.13846537 0.1892433 -0.45312938 -0.23796436 0.16091236 -0.086609155 -0.28156453 -0.2048597 0.003809938 -0.06133715 0.06364609 0.09340012 0.14701541 -0.09552946 0.4238807 -0.1680579 -0.15759505 -0.11091084 0.2955471 -0.84943986 0.04741688 0.20998096 0.028539956 0.27516088 -0.3095092 0.42180872 -0.035757016 0.29719624 0.011145892 -0.10077638 0.00994404 -1.0117763 0.19999593 0.2368825 -0.06829331 0.23457342 -0.099408075 -0.18563478 0.04228299 -0.26393184 0.104184054 0.49403906 -0.22622623 0.06235073 0.6841191 0.2942238 0.69070923 0.19186814 -0.41059664 0.43869537 -0.020704368 0.08276135 0.12554172 0.13646987 0.21406943 0.31049109 0.127444 -0.080808185 0.9171343
1641 0.124414496 -0.18375908 0.10069054 -0.17102127 -0.21903811 0.27411905 0.30524027 -0.20961274 -0.2264829 -0.027901419 -0.057104982 -0.69997203 -0.33726105 -0.43313894 0.14490879 0.52573735 0.09576197 0.24064574 -0.09451114 -0.065907694 0.17923301 0.34511667 -0.14892958 0.32938024 -0.4392157 -0.062020775 0.31180087 0.3971543 -0.19072083 -0.17047997 0.34778386 0.00950789 -0.008480382 -0.2214091 -0.049593672 0.2526141 -0.63846296 -0.08516326 0.46643028 0.011521623 -0.46789196 -0.38697803 -0.020562397 -0.31054768 0.22920461 0.3958958 0.1653264 -0.41826794 0.14518438 0.4649013 0.5052377 0.34717953 0.50491035 -0.46372053 -0.058120325 -0.21625029 0.4625409 -0.14667434 0.19264483 0.18296492 -0.1327648 0.46076953 -0.28840026 0.8120689
1645 0.19940585 0.07916533 -0.23308244 -0.18146722 -0.002760974 0.23110217 -0.2976259 -0.23495035 -0.73066664 0.3091534 0.32077327 -0.64427835 -0.33319268 -0.3607972 0.04526072 0.14236452 0.5399322 0.41940203 -0.43204477 0.2930952 -0.20140584 0.39111727 -0.30483592 0.22559445 -0.5802845 0.019095358 0.24379607 0.16221477 0.08709065 0.17891283 0.1584465 0.2735509 0.00010393236 -0.054707017 -0.20842882 0.54551446 -0.81772053 0.039514154 0.12437208 -0.18786839 0.13083577 0.104751505 0.18384196 -0.10039575 0.045702837 0.06379067 0.18621644 -0.089598835 -0.12613417 0.6586562 0.39489517 0.30267856 0.0020529144 -0.2853795 0.18433672 -0.05369595 -0.12678546 0.21568869 0.2999517 0.08362451 -0.21445525 -0.38903126 -0.3648511 1.0435205
696 0.051303063 0.1703554 -0.17345758 0.0007489577 0.10022014 -0.13646124 0.61264926 -0.5433526 0.11507127 0.1582651 0.17276955 0.24692227 0.106411636 -0.34376416 0.28338444 0.05634609 0.39622474 0.04938885 -0.33571976 0.41690716 0.20771948 0.39004743 0.047447685 0.44123593 -0.20857796 -0.35009873 -0.46345365 -0.0145809855 0.4129994 0.14434612 -0.057882536 0.025101427 -0.6363344 -0.59605056 -0.059580952 -0.20863827 -0.23898692 0.12535325 0.376408 0.29820904 0.21220797 -0.4189313 -0.19081642 0.097425364 0.46719822 0.41968867 0.06195498 -0.69598246 0.45650995 -0.25062627 0.071272716 0.039683398 -0.23808625 -0.29279274 0.261986 -0.20093578 -0.0647045 0.36719733 -0.5170375 -0.7537516 -0.51108867 -0.1992688 -0.002090048 0.2804513
31 0.44003153 -0.32668212 0.6149362 -0.20566948 0.5008481 -0.092192836 0.052385673 -0.035197463 0.38004532 -0.011820432 -0.6164429 -0.42021754 -0.098323576 -0.05333881 0.3885213 -0.53045434 0.20291415 0.290907 -0.020383729 0.41267228 0.26674092 0.6738094 -0.07632906 0.02664123 -0.30949533 -0.08162724 -0.31597885 0.40774384 -0.60262996 0.006201683 -0.6024221 -0.15438268 -0.14515099 -0.3658533 0.24982788 -0.0924854 -0.59683186 -0.32410192 -0.17465697 0.34304413 0.015160418 -0.15560688 -0.099557154 0.011721127 0.4593135 0.12119798 -0.0024633321 -0.083950266 0.047056627 0.18422945 -0.08162429 0.2687097 -0.32222486 0.17284586 -0.05946381 -0.30670157 -0.36844847 -0.36242452 0.016364008 -0.23706041 -0.3345483 0.16313729 -0.43622932 0.1911113
1722 -0.16111259 0.22908057 0.0109533155 -0.17836073 0.49572363 0.38299704 0.627234 0.17287397 -0.08353755 -0.098379105 -0.1146818 -0.4770381 0.21916528 -0.17751125 -0.051658973 -0.4774889 -0.2639562 0.45182508 0.0007877508 0.66586214 -0.14697267 -0.4601623 0.21245353 -0.0019276722 0.19721018 0.2727056 -0.29169443 0.27407792 0.062242545 0.87266743 0.037307475 0.3486507 0.41430458 -0.14498606 0.25612628 0.38451055 -0.13451947 -0.18829438 0.037772655 0.5693458 -0.03902539 0.08369306 -0.62668544 -0.12372243 0.022780979 0.48367926 -0.28575525 -0.1747946 -0.3237827 0.745855 -0.4917975 0.5773126 0.58221817 0.029287603 -0.0017073299 -0.2624861 0.06520115 0.22692914 0.10755773 0.058755904 -0.2028891 -0.12103313 0.4807333 -0.00076676684
2148 -0.28569403 -0.27184927 -0.33236197 0.4016083 0.63198984 0.363454 0.30498755 0.2806339 0.2570689 0.52029395 -0.6357277 -0.16250731 -0.03866046 -0.33152282 0.6264596 -0.04435696 0.090017326 0.26040888 -0.39455852 0.14704064 0.13240744 -0.017131522 0.63121974 -0.26584578 0.21355583 0.3302471 0.011252621 0.14440067 -0.03318369 0.0127289705 0.29603362 0.0089563485 -0.10931458 -0.1917164 -0.47922882 -0.31359062 -0.666779 -0.43951917 0.20116782 0.48588386 0.012002684 0.054467883 0.41309956 0.17813247 -0.057835344 -0.28756335 0.5418169 -0.40025192 0.016079629 0.37884754 -0.08652784 0.41878036 0.6968931 -0.08748819 -0.27123827 0.120868824 -0.14812654 0.2544237 0.36015543 0.007418756 0.5535515 -0.32126856 0.4035018 0.56423575
1638 0.18483916 0.1751242 -0.1982298 0.01612043 0.32098037 0.05525553 0.18882437 -0.40118942 -0.078290924 0.5602228 0.16061118 -0.58178115 -0.34872863 -0.22495455 0.04373402 0.18058847 0.20263158 0.23190942 0.043443568 0.10521845 -0.07806735 0.09115755 -0.044852685 0.4174464 -0.47702017 0.4445371 0.3326085 0.2503132 0.33213148 -0.29407677 0.36679664 0.22219513 -0.1015996 -0.23368417 -0.17063108 -0.14211369 -0.6605819 0.33054364 0.28612688 -0.16353226 0.0067064576 -0.45605558 0.046380606 -0.013517076 -0.25615048 -0.008486358 0.34468573 -0.27123633 0.17357504 0.8384117 0.6266679 0.3020648 0.22178198 0.009167046 0.24420513 -0.065455325 0.12996627 0.13007252 0.6363002 0.069732845 -0.058110744 -0.09621856 0.16072708 0.7091677
1621 0.25379944 0.13661887 -0.11784223 -0.042844057 -0.2654862 0.16522923 0.11069006 -0.19143356 -0.46402863 0.37014216 0.25412083 -0.49846107 -0.28732204 -0.3847661 0.05954085 0.11482813 0.23509128 0.26890785 -0.47153533 -0.0018594406 -0.24109656 0.16594744 -0.016591271 -0.017051246 -0.56999093 0.13492428 0.6049036 -0.05044271 0.2484473 0.20994414 0.39945814 -0.2805146 0.35508153 -0.26033628 -0.15272813 0.051461022 -0.6778441 0.020939443 0.2468944 0.0894866 -0.21273446 -0.31295148 0.41431618 0.118466854 0.1377249 0.11941007 0.17937079 -0.49667343 0.5081695 0.82863265 0.4023791 0.4066038 0.4233242 -0.39402044 -0.0013194785 -0.009041301 0.123690404 -0.20916696 0.64198256 0.10938401 0.26488832 0.19856665 -0.13132602 0.69429815
510 -0.17181233 0.060277335 0.11097629 -0.13881578 0.5140683 0.55580634 0.7399889 0.32281438 0.07535675 0.36238825 0.056280714 -0.21785578 0.0939004 0.07998229 0.5813079 -0.08575837 0.16672604 0.43640307 -0.2260616 0.0015522521 0.25473237 -0.23378879 0.117261484 0.03406566 -0.113775834 0.7310465 -0.017538048 0.2528242 0.18505827 -0.015068554 0.21955375 -0.52618545 0.31797984 -0.06848992 -0.3591424 0.24563378 0.18763396 -0.32745656 -0.49458873 0.5721826 0.2988339 -0.37365568 -0.01997361 -0.028477322 0.02421242 -0.103707336 -0.14228149 -0.042398002 -0.34646633 0.046337333 -0.69622135 0.33346495 0.002946525 0.02498542 -0.19530818 -0.41989908 -0.45795634 0.24254031 0.25101152 0.2232149 -0.59096086 0.08738952 0.0584968 0.4783762
68 -0.015861833 -0.1395479 -0.071115546 -0.15706117 0.13232656 -0.11959651 0.16196375 -0.0042111087 -0.33059958 -0.41617385 0.41907656 -0.028316788 -0.110541075 -0.30917504 0.23088808 -0.73444915 -0.42345178 0.15211265 -0.21974286 0.7918171 0.66600066 0.28078654 -0.009166335 0.11947586 0.4111732 -0.17424154 -0.27697265 0.322975 -0.33418757 0.21670571 -0.14934823 0.32083344 0.14026065 -0.26754445 0.87939376 -0.34389684 -0.10660605 -0.15096556 -0.21384172 0.37070644 -0.37530404 0.2577686 -0.13679434 0.36897102 0.20743445 0.14329153 0.34236768 -0.5529713 0.14516512 -0.071870066 -0.2531688 -0.28415453 -0.30317467 -0.20867167 0.07789841 0.11103996 -0.39582688 -0.49073848 0.2742036 0.10340092 0.025462074 0.089737125 0.1142736 0.8678751
2330 0.29389602 -0.043520782 0.010942644 -0.19870134 0.16081488 0.18423057 0.122484855 -0.22856966 -0.2573556 -0.07914343 -0.124550276 0.06816475 -0.2296755 -0.01731231 0.26281482 -0.15699428 -0.062416524 -0.06890504 -0.11274618 0.2661138 -0.03435989 -0.40582186 -0.26653177 -0.036631014 -0.65785265 -0.20503746 0.1538893 0.4544825 0.57936674 -0.4694193 0.020763038 -0.026420126 -0.18432932 -0.15624173 -0.26930937 0.21546124 -0.5533802 0.16224083 0.2647495 -0.20365596 0.07295425 0.09578079 0.30962834 -0.14894986 -0.565436 -0.43939105 0.43144992 -0.33902636 0.2176338 0.93897605 0.3667201 0.54430985 0.4291587 -0.21774898 -0.117747426 0.005846715 -0.17854415 0.4091903 0.25636128 0.40094617 -0.40151823 0.13599306 -0.11607224 1.0650556
2159 0.099364586 -0.14108287 -0.28777707 -0.3483414 0.064786 -0.20205905 0.26020718 0.0686923 0.22556868 -0.20043035 -0.086088516 -0.13196689 0.17866069 -0.7575535 0.2756751 0.030178802 -0.11045394 0.47640955 -0.32329372 0.27278695 0.15952969 0.02383516 0.41061616 0.29252672 0.37753955 0.062194794 0.2704441 0.28106207 0.06216189 -0.02506741 0.94003016 -0.00258144 -0.092632286 -0.49392018 -0.34679994 0.37757936 -0.50952274 -0.5574515 0.7299904 -0.27452135 0.11068372 0.21536547 0.043367453 0.37166858 -0.18586561 0.27709278 -0.328779 -0.15938827 0.43680614 -0.26845026 0.30448565 0.19148639 0.080246694 -0.4942998 0.5162562 0.29829723 -0.31023172 0.35800865 -0.05185415 0.43170506 -0.29242384 -0.040965818 0.09395042 0.4382303
1330 0.269696 0.68246835 0.08593005 -0.057625346 0.23798332 -0.04050489 0.04509755 -0.2359351 0.28618965 -0.30349892 0.0029906458 -0.2745443 0.0021430622 -0.4999349 0.7900738 -0.79303956 0.28052005 0.05103546 0.12557629 -0.27965656 -0.07549001 -0.2810039 0.31924075 0.2688853 -0.14396834 0.45365217 0.09911735 0.439878 -0.12894621 0.02701692 1.0563191 0.09827902 0.14507301 -0.54409015 -0.04518212 -0.052405775 0.19626412 -0.0007255785 -0.3910753 0.053455524 0.28897983 0.2680325 -0.05050748 -0.0339647 0.45939913 -0.54671687 -0.053425927 -0.37913245 0.05937419 0.3994396 -0.4920807 -0.01208894 0.18006942 0.22494315 -0.43070304 -0.57681936 -0.29371464 0.5540846 0.059242096 0.19629465 -0.247338 0.111861564 0.2798877 0.4920055
1434 0.4352889 -0.3952886 0.2793091 -0.23690149 0.47283167 -0.08990727 0.046540976 -0.30194393 -0.5358488 0.16843493 0.17079708 0.576683 -0.3401351 -0.82897866 0.27475628 -0.15047832 -0.057057537 0.2795054 -0.44794825 0.44476217 0.3721911 0.016211899 -0.07352776 0.22008687 -0.17566663 -0.096228324 -0.18521836 -0.03917583 -0.20114177 -0.058672063 0.10728976 -0.069303036 -0.6935159 -0.44756663 0.534806 0.12740077 0.21087854 -0.12394033 -0.20390326 0.21552981 -0.347026 0.25562274 0.3149754 -0.11139731 0.6170358 0.27024576 0.312657 -0.2762464 -0.12091607 0.28446236 -0.32377368 0.009451043 -0.44374728 -0.30262062 0.4306805 0.4384763 -0.4249106 -0.5468852 0.4079566 -0.73433334 -0.41771415 -0.14473912 0.014352227 0.42065126
399 0.22000486 -0.042034872 0.28818706 -0.015091607 -0.05455045 0.08861581 0.47862893 0.64143676 0.22330013 -0.1808343 -0.27642724 0.3442822 -0.09707532 0.15180573 0.40714478 -0.13857263 -0.49716258 0.07383861 -0.14078811 -0.059490107 -0.0007000314 -0.4555181 -0.27442294 0.39960396 -0.020742768 0.0333167 -0.25314686 0.5635832 -0.088238776 0.44479212 0.6109613 0.5130733 -0.030616738 -0.48965064 -0.03807413 -0.52866817 -0.55154794 -0.09982296 0.2800659 0.09359185 0.12342793 -0.50733685 0.18558459 -0.2687438 -0.06531225 0.22349612 0.35532233 0.5860426 0.03151573 0.23218472 0.23326784 0.08060468 0.017819861 -0.6256302 0.52609986 -0.21189673 -0.6070784 0.32934865 0.06501943 0.042843245 0.08539685 0.023848226 -0.04867035 0.40740702
226 0.25350538 -0.6625796 0.44417995 -0.30592364 -0.06293958 -0.32248363 0.24262378 0.0895199 0.14901157 0.13000226 -0.017936902 0.2151651 -0.19358632 -0.6334114 0.041343357 -0.093171746 0.404909 0.1853227 -0.31850097 0.56912076 0.3891785 0.042613328 0.05224648 0.06843661 -0.17297284 0.1591168 0.021189926 -0.15005232 -0.35012332 0.004458708 0.25674945 0.030812353 -0.3257782 -0.05247432 -0.030758549 -0.018556513 -0.01025171 -0.27717656 -0.16694234 0.5856917 0.23413791 0.013915993 0.3798566 0.30725735 0.7450603 0.24092206 -0.18458638 -0.3518424 -0.17898834 0.48451802 -0.28526217 0.18205552 -0.18982734 -0.11467448 0.6683142 -0.12762219 -0.71606183 -0.6392679 0.3244748 -0.63184166 0.10420015 0.12727953 0.117896244 0.2907203
1646 0.27562782 0.2788765 -0.1948523 -0.14210741 -0.17707591 0.17928465 0.18607952 -0.23320562 -0.31018665 0.24150574 0.05913997 -0.1366478 -0.3573508 -0.37310869 -0.05077838 0.20403126 0.471005 0.42090872 -0.56224906 0.073875934 -0.2785419 0.23129448 -0.32278192 0.5319634 -0.48309457 0.058476407 0.27441332 0.14422984 -0.118460424 -0.17332147 0.5419235 -0.00623218 0.03088708 0.0030856947 -0.39374128 0.27801964 -0.9669301 0.5714512 0.33769938 -0.14158532 -0.25055814 -0.13281852 0.11366353 -0.1342013 -0.6303532 0.24385951 0.02487979 -0.5767907 0.10450605 0.8435627 0.1129138 0.33626914 0.2787182 -0.32494536 0.12737612 -0.13025406 -0.13770597 0.0733775 0.3851148 0.347647 0.13870879 0.105611324 -0.045745675 0.6967095
568 0.33712766 -0.15006292 -0.11307449 0.12421326 0.9758499 0.37352464 -0.054695178 -0.12228934 -0.59805965 -0.39642355 0.14779356 -0.43600702 -0.01307637 -0.8890344 0.23591724 0.06226335 0.0045697535 0.23874874 0.13302113 0.2395884 0.3001288 0.08317841 0.21358073 0.49958962 -0.027874453 0.33082688 0.15265785 -0.36123702 -0.3146458 -0.15144072 0.45637786 0.15668401 0.25918013 -0.2894619 -0.046534352 -0.597686 0.040114492 -0.5957272 0.12354982 0.8115512 -0.4979902 -0.4462165 -0.08642302 -0.336161 0.384873 -0.33073637 0.12959577 -0.6468778 0.19842573 0.6031535 -0.33050385 0.36327878 0.4017127 -0.5042921 -0.31698883 -0.16690686 -1.2975199 -0.48519015 0.16000895 0.019849297 0.13342074 -0.093804166 -0.5869196 -0.2704333
254 -0.06373103 0.3060328 0.36307076 -0.31497955 0.39113823 0.06792126 1.353021 -0.15142177 0.22070138 -0.16883208 0.25517985 0.5785383 0.53523487 -0.16326682 0.2844378 -0.2717152 0.4958129 0.5678954 -0.32862115 0.14668062 -0.0040078373 -0.023680242 -0.3536234 0.24309269 -0.3648795 -0.015098608 0.32160074 0.1116937 1.0240908 0.43974793 0.049214404 0.11698158 -0.13596605 -0.18641257 0.23976393 -0.0589157 -0.008005559 -0.05544333 -0.47101334 0.6994895 -0.3428959 -0.13531087 -0.23967165 0.1915808 0.165349 -0.100721195 0.26801226 -0.108249 0.26081738 0.23285618 -0.4223115 0.26642382 -0.0781255 -0.47368157 -0.2467259 0.44516438 -0.23401096 0.32525346 0.0075212065 0.06438396 -0.037166014 0.39637244 -0.10952193 0.457086
1573 0.17507465 0.033521656 0.5459872 -0.62226605 -0.21499288 -0.28888318 0.31621858 -0.23153155 -0.34987167 0.39833686 -0.39792064 -0.07617839 -0.09031199 -0.6424052 0.12769765 -0.12087945 0.23412833 0.7956853 -0.361121 -0.09717701 0.03419295 0.24016355 -0.0047943406 0.3272545 0.1919481 -0.36516914 -0.36689594 0.14887603 -0.14980046 -0.06444583 0.13885762 0.31206012 -0.059281096 -0.5902979 -0.4602484 0.23369946 0.48534027 0.380193 -0.117483884 0.2953936 -0.024012985 -0.1584564 -0.2431309 -0.2591136 0.23587444 -0.18951166 0.09973926 -0.5498471 0.026121076 0.5266946 -0.26542965 -0.28933212 0.41250956 -0.63748556 0.20143202 0.37587422 -0.018354224 -0.5365117 -0.24570523 -0.25249556 -0.19179638 0.16996461 -0.3865854 0.22307326
2197 -0.08192909 -0.1748756 -0.15334564 0.2666539 0.8243744 0.41989556 0.40220094 0.2665324 0.16765569 0.69182426 -0.5724542 0.14135934 -0.13700674 -0.13669246 0.5819769 -0.1008802 0.11030191 0.4161452 -0.043777302 0.52957356 0.07987604 0.041461788 0.24758434 -0.005523125 0.20469902 0.43581563 -0.32842714 -0.06641283 -0.18401013 0.19030017 0.6988047 0.12520497 -0.03351889 0.14575613 -0.33378196 -0.06090971 -0.42541286 -0.53723395 0.6138592 0.29161647 -0.079726264 -0.012628275 0.18902831 0.38771743 -0.34599525 -0.4496866 0.6056335 -0.15110871 0.18822882 -0.13336547 -0.09782963 0.2893768 0.6535037 -0.2142096 -0.2511945 -0.33243066 0.06970241 0.15093453 0.093207315 0.025800142 0.11001935 -0.18961646 0.34350637 0.7009529
1443 0.27895346 -0.26790452 0.06565007 -0.3922791 0.44481564 0.031004459 0.25258276 -0.23934148 -0.55770427 0.1590757 0.11031803 0.39429605 -0.56175333 -0.6570354 0.43301812 0.05836318 0.059628114 0.1282617 -0.009349262 0.5596028 0.51484907 -0.10203542 -0.2322494 0.0560952 0.0697725 -0.1942892 -0.07980976 0.43969852 0.12610145 -0.38992622 0.11408904 0.09811093 -0.39089888 -0.51794267 0.058285758 0.13347027 -0.12719499 0.0049555735 -0.17589472 0.17346913 -0.19285545 -0.0096877515 0.13675235 -0.16567934 0.8297331 0.37927273 0.21568342 -0.66376734 -0.17539625 0.122597165 -0.3917484 -0.44245684 -0.16219045 -0.14802173 -0.030540198 -0.023063947 -0.30761677 -0.6445488 0.09154841 -0.8125125 -0.25601813 -0.12579976 0.08846919 0.5016663
493 -0.21106873 -0.31661513 -0.23070516 -0.313297 0.079069674 0.3141842 0.5555004 -0.15573946 -0.31451643 -0.2463987 -0.0006114835 -0.48105627 0.2610281 -0.31150213 0.045053706 -0.41835752 0.03693776 -0.054755118 -0.40061563 0.7017829 0.11234538 -0.22113323 -0.05308018 0.57571554 0.1758229 0.16338128 -0.378166 0.37181014 -0.44352117 0.2345566 -0.11850543 -0.011191491 0.06774522 0.040930144 0.30331323 -0.62828565 0.24909072 -0.39456743 -0.1384976 0.0868005 -0.13830893 -0.8608479 -0.18489496 0.009491719 -0.0806704 -0.40016788 0.04309436 -0.06099721 0.011292072 0.2148589 0.06505298 0.5816016 0.23713848 -0.18341629 -0.60294884 -0.73123986 -0.31385204 -0.02311776 0.5488689 0.49073553 -0.4197512 -0.19823486 0.4717705 0.26033762
3 0.09749726 0.14815965 -0.20263387 -0.14967093 0.0012227764 -0.17941801 0.28359908 -0.13079792 -0.3538719 0.031921327 -0.0396431 -0.47984588 -0.45197833 -0.28827918 0.15848051 0.29765567 -0.028363112 0.52473944 0.010395565 0.12042575 -0.41774788 0.0208851 -0.3574678 -0.012302093 -0.6821722 0.14030482 0.6325067 0.44768974 0.18002522 0.031592898 0.34380877 -0.14918521 0.03545992 -0.18164875 -0.2197192 -0.103645444 -0.67010665 0.26372492 0.26513132 0.023034716 -0.011441132 -0.20102175 0.22494543 0.26413542 -0.19434932 0.29352787 0.24828291 -0.56221485 -0.012952272 0.7682459 0.35363868 0.5277584 0.09503585 -0.4683269 0.098212406 -0.1448887 0.16414517 -0.14154778 0.40391046 0.05053025 0.16913988 0.24200621 0.09193191 1.1083484
464 0.27733713 0.34594032 -0.26133254 0.024717616 0.15013625 0.9229078 0.27528572 -0.3079981 0.33985952 -0.40407687 -0.05112113 0.142739 0.24915354 0.40835875 0.35613602 0.37541148 -0.351277 0.8137465 -0.35241586 0.034896627 0.22283034 -0.1115113 -0.29909617 -0.11511847 -0.36976454 0.36497447 -0.5520176 -0.073278114 -0.21542722 0.23275611 0.30577952 0.07024443 0.08890448 0.066862784 0.19210751 0.061953552 0.17099832 -0.12013391 0.37231863 0.3457665 -0.010765169 0.08072421 0.077513695 -0.17741251 0.0043321536 -0.1462814 0.4394161 -0.2239292 0.5500968 0.72125053 -0.5630972 0.4988264 -0.27393806 -0.39410138 0.44436502 -0.12734759 0.051135674 0.20166758 -0.050943885 -0.062384058 0.03483988 -0.03522988 -0.07431549 0.28183535
1654 0.5608253 -0.017384628 -0.26208413 0.045571297 -0.29947162 -0.30185288 0.23934287 -0.26532796 -0.60972804 0.20101663 0.20211412 -0.5184343 -0.30539587 -0.1951061 0.07967095 -0.103112735 0.30161002 0.45124876 -0.12596104 -0.13374463 -0.27886835 0.08836703 -0.2566914 -0.056385253 -0.4845148 0.20717974 0.49544683 -0.030024242 -0.03858952 -0.087477 0.36243188 -0.101874225 0.18287285 -0.39441603 -0.23476233 0.20128553 -0.60926926 -0.22778973 0.4444901 -0.02793557 0.053264733 -0.12231345 -0.07324632 -0.03434405 0.05899408 0.2523591 0.11722778 -0.52051795 0.40106454 0.63126063 0.36605433 0.5903116 0.31055883 -0.5626529 0.06713194 -0.07480527 0.10560493 -0.014343648 0.54647464 0.26190937 0.25460365 0.17076747 0.32637426 0.88387626
1832 0.28663543 0.7279323 0.013860004 -0.35010743 0.306223 0.34637752 -0.21996601 0.15082915 0.2720616 -0.13263208 0.024198424 -0.07364881 -0.14539206 -0.021649508 0.10257864 0.038851175 -0.61054474 0.375374 0.03239673 0.42459607 0.022727491 -0.11169546 -0.10510261 -0.0008533079 -0.18003437 -0.09490178 -0.64193666 0.09967231 -0.2326147 0.16977721 0.098157264 -0.15816164 0.527821 -0.30627346 -0.10032175 0.3881364 -0.20867315 0.02489227 0.34397474 0.85721016 0.11195436 -0.521427 -0.5803761 0.34450978 0.34225008 0.15997931 0.38298026 0.0025926244 -0.018833563 0.7567642 -0.08086244 0.65994865 0.08653207 -0.21809724 0.18104503 0.0039248094 -0.0017283072 0.9381414 0.0036488608 0.1461518 -0.06629095 -0.3521552 0.3504907 0.16838272
1540 -0.08709979 -0.08220453 0.10370219 0.12385383 0.30744115 -0.05022978 0.55848616 -0.054803982 -0.019560112 0.57758313 -0.2144627 -0.3316233 -0.051516004 0.011266254 0.11808983 0.025106974 0.18664068 0.6266171 -0.075804844 0.4770513 0.84230673 0.06605387 0.4105929 0.34998125 0.24343948 0.58204895 -0.3422794 0.21691144 0.08137661 0.00982514 0.6485533 0.028083615 0.27306217 0.6120232 0.21409208 -0.058840565 -0.052743644 0.35251403 0.024316965 0.32996863 0.29754317 -0.20671813 0.17649992 -0.09773511 -0.1491044 -0.5250323 0.28006044 0.035188496 0.053469595 0.015064147 0.3774236 0.47527233 0.30856732 -0.1520134 0.039646648 -0.121295996 -0.58271265 0.18980922 0.2711288 -0.2244158 0.13499415 -0.25387272 0.08162582 0.35069296
1476 0.32593444 -0.43365073 0.4893821 -0.29929557 0.5939238 -0.14582771 0.08872616 -0.14480314 -0.49011043 0.47451776 0.4576494 0.20664509 -0.48952132 -0.5676502 0.1885501 -0.25510857 0.31086487 0.23016395 -0.10679867 0.46243012 0.2550183 0.15555032 -0.43207157 0.16985437 0.22665821 0.42557198 -0.25247273 0.14180945 -0.1060282 -0.16846634 0.33685648 0.2905203 -0.2743393 -0.34569225 -0.5537267 0.3363581 -0.029950088 -0.4473456 -0.11763853 0.13480681 -0.17099443 0.33463866 0.24528246 -0.13095684 0.56206113 0.29025385 0.117523946 -0.043230392 -0.025286043 0.5240195 0.038705237 -0.08357614 -0.3378808 -0.3525027 0.20725948 0.27329156 -0.2455835 -0.46741506 0.1185628 -0.7907045 -0.19883649 0.041601397 -0.06670863 0.5282947
397 0.42757544 0.26806688 -0.03648171 -0.01754321 0.30628443 0.08318443 0.22639842 -0.41075146 0.12842557 -0.16051368 -0.104095176 0.14157501 -0.06727181 0.12826385 0.39705694 0.18327244 -0.4098302 0.3337912 -0.20491064 0.14592808 -0.20343944 0.2604089 -0.13757151 -0.16089779 -0.30642578 0.015480524 -0.35067415 0.062264737 -0.2394136 0.3232751 0.60199696 0.20460844 0.12019436 0.049489584 -0.0030391861 -0.21342786 -0.3009017 -0.21888156 0.31476066 0.19590183 -0.30163175 -0.51753527 -0.15987729 -0.85925674 0.085728586 -0.19523874 0.60868955 0.25956935 0.25953037 0.6860069 -0.20984581 0.48434347 -0.47815487 0.4483167 0.08059641 -0.12567176 -0.63005275 0.058954574 -0.18769561 0.2166555 -0.02390949 -0.065176964 -0.2054704 0.021396348
277 -0.24722305 0.04984858 0.18194273 0.28232157 0.24402194 -0.010478491 0.99968606 -0.13783997 0.16030243 -0.33632088 0.17978792 -0.19037384 -0.025207823 0.035502817 0.39877772 0.10389863 0.04992874 0.023161784 -0.3755124 -0.039304085 0.10880603 -0.24819626 0.098043665 -0.3364731 -0.04304534 0.40968475 -0.26785427 0.13426615 -0.29268765 -0.03503564 0.27958205 0.3225663 0.099036746 -0.6644331 0.28996816 -0.15409099 -0.017085005 -0.3135441 0.16256395 -0.14110693 0.22160327 -0.48969585 -0.30978453 -0.25159636 -0.21425068 0.02448057 0.27587366 0.33170462 -0.20819333 0.5250123 -0.1539311 0.36692324 0.038331237 -0.36748713 -0.053474065 -0.3459295 -0.49765992 -0.021236615 0.24297869 0.4094145 -0.45799094 -0.13071354 -0.034452222 0.12716335
1264 0.55700624 0.4861564 -0.15811628 -0.3855404 0.5859741 0.19985849 0.38556924 -0.20500901 0.0062595783 -0.41416067 -0.083863676 0.029686032 0.26470524 -0.38724345 0.23532084 -0.6989395 0.050428417 0.7537839 -0.054642763 -0.055864215 0.49571854 -0.27257353 -0.041088957 0.60387003 -0.34943524 0.4724421 -0.1056786 0.4046238 0.30220145 -0.040682957 0.82665986 -0.3237281 -0.41360083 -0.42751014 -0.053559586 -0.016829813 0.026076231 -0.15124379 -0.39650044 0.13886946 0.2942746 0.17420292 -0.1373888 0.26648402 0.3344496 -0.3029664 -0.20783831 0.055001568 -0.057274148 -0.16149451 -0.88937515 0.28935152 0.44495368 0.37849376 -0.26207933 -0.6870171 0.028046705 0.4128128 0.12310801 0.5655227 -0.24515183 -0.04444983 -0.025959283 0.376664
1478 0.6205928 -0.07657288 0.2913737 -0.37390512 0.5588059 -0.26940748 0.12760022 -0.2986757 -0.44852778 0.11718379 0.19544603 0.5167543 -0.3282533 -0.63317597 0.13556862 0.30619904 0.13960344 0.24570085 -0.17102814 0.3270719 0.31894103 0.3396185 0.11248275 0.234752 0.2186795 0.11625496 -0.42624503 -0.15743852 -0.10381201 -0.11575152 0.25387377 0.024172531 -0.5382327 -0.36382255 0.048743695 0.08939832 -0.077385075 -0.0798193 -0.20931579 0.3989057 -0.3022301 -0.12214744 0.20692304 -0.23370135 0.60236883 0.29307663 -0.2028382 -0.4586981 -0.114237785 0.56184566 -0.32860857 -0.33794388 -0.2065036 -0.43126062 0.13846028 -0.03165926 -0.6478972 -0.6732081 0.0124206375 -0.6784899 -0.57056737 -0.014257482 0.020586444 0.39617798
433 0.35128742 0.41701558 0.11391612 0.10514986 0.06185768 0.5768748 0.5046872 -0.30326173 0.015430631 -0.19224025 0.06578848 0.05271507 0.094048984 0.055273365 0.05511657 0.094156764 -0.10313718 0.42628202 -0.21019414 0.21360746 0.103166506 0.20815606 -0.44534948 -0.22181378 -0.19786163 0.06759066 -0.29601777 0.042946905 -0.11922169 -0.50756764 0.4228195 -0.2136935 -0.08381537 -0.04000971 0.21753919 -0.26147637 -0.22084156 -0.28059313 0.31683165 0.13099329 0.40348807 0.12898435 0.09885941 -0.108565286 0.16074522 0.014955272 0.86201936 -0.21600194 0.30313405 1.105571 -0.087830454 0.6417224 -0.020544393 -0.2452321 0.46171406 0.27185982 0.0077319928 0.5973784 -0.106009096 0.38806182 0.12801647 -0.17919353 -0.12903945 0.11821728
960 0.27559265 -0.120227784 -0.080894396 -0.3323343 0.50733715 -0.052446578 0.73088616 0.026813665 -0.08480079 -0.56974864 -0.23667656 0.12512325 -0.56229377 -0.34887692 0.024765166 -0.31511816 0.5204728 0.60375494 -0.30354047 -0.713762 0.3582442 -0.2093785 -0.10682396 0.434748 -0.52064824 -0.10375299 -0.2714552 -0.22393766 -0.30289152 0.87372476 -0.07013247 0.3917467 0.27482748 0.08383697 0.2658477 0.42533582 -0.08602452 0.1853801 0.12577115 0.15851264 0.4885276 -0.75531346 0.21210036 0.021337664 -0.23681538 -0.32562655 -0.42423192 -0.2649775 0.26056787 0.36193508 -0.2093748 0.10429514 0.33590794 0.025393263 -0.17525955 -0.20820403 -0.21125242 -0.10376023 -0.2853134 0.23613948 -0.15263867 -0.036740907 -0.11075602 0.560905
1316 -0.0012520332 0.38013604 0.16857547 -0.20222159 0.34789774 0.1419532 0.18159702 0.19712648 0.34573504 -0.18023258 0.02681353 -0.26977792 0.24731462 -0.75974774 0.3190471 -0.61022586 0.17891851 0.3471692 -0.23126392 -0.15518677 0.1265796 -0.33160585 0.03601252 0.54839015 -0.21242025 0.08947308 0.305433 0.5867799 0.08707588 -0.34061465 0.89566654 -0.34916782 0.12051193 -0.3459173 0.27569994 0.19099356 0.3510458 0.12296475 -0.7807266 0.33156842 0.16358574 -0.014940611 0.07069644 0.17928444 0.26947308 -0.36431596 0.25441334 -0.20073158 -0.08337644 0.004517392 -0.8721878 0.4513884 0.16246168 0.14003563 -0.4490351 -0.68321556 -0.16369824 0.52886164 -0.108321145 0.030761775 -0.31944463 0.31505665 -0.018048476 0.81378645
1840 -0.029288711 0.5438112 0.47723812 -0.59687304 0.10610725 -0.008424016 0.06281021 -0.06695673 0.48544228 -0.1060546 0.3122021 0.24172296 0.005191418 -0.8658127 -0.0709577 -0.37606668 -0.44445023 0.13881941 -0.35049996 0.53840935 -0.5428345 0.10118388 0.27325872 -0.32301167 -0.21332686 0.035471447 -0.49302697 0.17625389 0.29101583 0.3584739 0.5285356 0.22486986 0.2669906 -0.22707564 0.16913427 0.07222201 -0.6279101 0.3572042 0.51179004 0.56390417 -0.2817074 0.28748003 -0.07226962 -0.26970208 -0.14656787 0.29553264 0.35417166 0.12039923 0.7624505 0.44378114 -0.52225345 0.82307273 0.029338483 -0.048181273 -0.12553723 -0.6212755 0.10851878 0.108621225 0.29075432 0.050305657 -0.161589 0.029491017 0.3254685 0.3905649
1685 0.19730161 -0.021493908 -0.13724983 -0.041730136 0.0045028096 0.05082463 0.107088335 -0.053276844 -0.50654083 0.29441646 0.21416853 -0.47632104 -0.45910245 -0.2660879 0.11296914 0.16227803 0.1379632 0.5259585 -0.4464356 0.30113506 -0.14373586 0.2332494 -0.11605076 0.18376489 -0.62933904 -0.10123933 0.1756139 0.10698959 -0.074587815 0.010675139 0.61563885 -0.04907535 -0.18930268 -0.12548107 -0.3788545 -0.05576799 -0.8147967 0.3738677 0.38223195 -0.33469763 0.117452346 -0.100297056 0.06950521 -0.034596737 -0.29224864 0.29198843 0.6165574 -0.2154008 0.58960384 0.60584915 0.1757465 0.417625 0.08410148 -0.14429265 -0.07200299 -0.13872184 0.20685834 0.08654512 0.518778 0.30337626 0.06464194 0.21838738 -0.0625571 0.678404
1684 0.38793918 0.083133675 0.089451164 -0.0097548785 -0.22809897 -0.027112836 0.014042796 -0.5334766 -0.7952497 -0.051388137 0.11223459 -0.46426398 -0.45292994 -0.6412465 0.03046736 0.20116179 0.33258915 0.40538535 -0.12127329 0.23401026 -0.049105547 -0.012228197 0.15157875 -0.026547771 -0.54081255 0.36369443 0.44188192 -0.26976132 -0.23354855 0.105161205 0.53271365 0.027994905 0.28040117 0.038589623 -0.3983918 0.07300799 -0.45615757 -0.046158694 0.28859892 -0.12709525 -0.1371572 -0.36911 0.0050039385 -0.047085818 -0.064423375 0.2752745 0.46572915 -0.33535025 0.40177187 0.5634499 0.3303232 0.31360814 0.12682979 -0.3149403 -0.018703062 -0.15300222 -0.005077266 -0.19029887 0.39316493 0.31766543 0.11883888 0.1934572 -0.039926253 0.81166685
1444 0.6777768 -0.52489704 0.29605392 -0.42564756 0.59121245 -0.07774603 0.25178084 -0.08903917 -0.61421895 -0.03559291 0.12819074 0.69288707 -0.46781692 -0.8165569 0.41252843 -0.1273822 0.24919188 0.13875423 -0.33102226 0.43346998 0.21283819 -0.07358761 -0.07411812 0.03613692 -0.11008842 0.13359506 -0.2657846 0.07336989 -0.25156212 -0.022337101 0.137782 0.07387612 -0.6016759 -0.271611 0.22111778 0.044484217 -0.1302121 -0.10504513 -0.15715289 0.13441682 0.024253182 0.03936653 0.29527107 -0.08131069 0.5932995 0.03297458 -0.197041 -0.48293895 -0.46425754 0.3958525 -0.2769992 -0.2532984 -0.16837637 -0.2689262 0.07603344 0.29979733 -0.62760645 -0.43937984 0.11724261 -0.9346209 -0.25817302 0.020617394 0.42104155 0.48303047
1460 0.57635444 -0.4215771 0.47553712 -0.42894822 0.5729181 -0.21319596 0.072800875 -0.19383186 -0.6820466 0.20535702 0.081046976 0.19069196 -0.31390437 -0.7989485 0.23162325 -0.06934224 0.042854838 0.33253673 -0.3431325 0.34788153 0.19168825 -0.023102386 -0.08116496 0.15191612 0.16114558 0.08296179 -0.21103968 -0.06567863 -0.15273117 -0.44930407 0.12696853 0.093568616 -0.38327628 -0.38798767 -0.0042658974 0.008872818 0.042613685 -0.037841905 -0.08513712 0.45739025 -0.3021842 -0.06618943 0.14648621 -0.16859707 0.848851 0.29073843 0.0042939316 -0.4573057 -0.15156032 0.41323656 -0.29639226 -0.104872964 -0.14265421 -0.25797307 0.22577138 0.13029301 -0.7303047 -0.6771378 0.10638899 -0.81656426 -0.2492986 0.04818634 0.11002429 0.3395104
146 -0.10431525 -0.12374791 0.018508028 0.058205064 -0.10241757 0.26317415 0.0520885 0.3846549 0.08632083 -0.13350245 -0.25101706 0.07834244 -0.2213815 -0.17608517 0.57605255 -0.17063142 -0.12534846 0.48003685 0.24675299 0.34666902 0.26580417 -0.11811393 -0.06869417 0.31685838 -0.34898344 0.039696757 -0.5802074 0.29593965 -0.4741779 -0.047386188 -0.067260884 0.0015294341 0.06258613 -0.6096193 0.36367467 -0.15888345 -0.32361758 -0.08276268 0.09466857 1.0244141 0.108131856 -0.30443317 0.45758268 -0.4126063 -0.1597423 0.34966898 0.35382748 0.121364996 0.60206956 0.16812003 0.52340233 0.3893929 -0.1853511 0.12827279 -0.12537968 -0.59706056 -0.37411934 -0.2636224 0.046566546 0.04666766 -0.3157554 0.497913 -0.26785508 -0.12871246
1430 0.28339913 -0.46060765 0.18100376 -0.33855575 0.41185477 -0.3710529 0.01193116 -0.13475935 -0.28277463 0.16850305 -0.11312544 0.3082555 -0.18094456 -0.8110841 0.7506636 -0.27400336 0.26322466 0.07801604 -0.6710827 0.574883 0.36476442 -0.12249831 0.05703832 0.1066879 -0.020267654 0.20230071 -0.1262342 -0.06910216 -0.17578661 -0.25241393 0.026284294 0.103054866 -0.34618095 -0.3326236 0.014827944 0.077563375 0.1675728 -0.13084897 -0.2728907 0.17529385 -0.3057589 -0.116528265 0.08036744 -0.2643765 0.8590073 0.2110827 -0.1063689 -0.31551528 -0.047608316 0.40989435 -0.056705046 -0.13581271 -0.21672201 -0.31577143 0.54346377 -0.048670616 -0.71264195 -0.27241728 0.37713578 -1.0261827 -0.035553277 0.09338777 0.45477346 0.51121217
1446 0.41602755 -0.6063527 0.50989443 -0.3670125 0.5539697 -0.23686546 -0.017194273 -0.2653489 -0.72807425 0.23014897 0.1686664 0.49235728 -0.2888632 -0.64242965 0.28240559 -0.08453389 0.08735683 0.14362946 -0.4040533 0.49184892 0.28143677 -0.09999481 -0.1380819 0.28242278 -0.06731156 0.09934024 -0.28751412 0.02918825 -0.17066833 -0.27605364 0.25035015 0.164778 -0.46661875 -0.22607127 -0.0025265773 -0.07458672 -0.053439353 -0.07400795 -0.061512806 0.4087055 -0.2073069 -0.039827492 0.23557734 0.09374475 0.9281344 0.31354016 0.03243527 -0.29153594 -0.13787565 0.51580805 -0.35639507 -0.065286934 -0.34841803 -0.17843255 0.35669962 0.05197063 -0.5361806 -0.43501318 0.20564555 -0.61540073 -0.32584402 0.026640162 0.068571195 0.47899863
247 -0.11279774 -0.72649956 0.81653976 -0.35821614 0.0015270015 0.11375415 -0.15961821 0.080226555 0.18425138 0.03322474 0.044480305 0.2217919 -0.1171874 -0.10017667 0.43221474 -0.11030459 0.26961383 0.27000138 -0.31132257 0.61039543 0.23557253 0.16646326 -0.2955058 -0.035318762 0.022989355 -0.039868336 0.123853296 0.3632052 -0.42280164 0.13850652 0.3438145 -0.35013086 -0.2688093 -0.2564684 0.39478853 0.19425203 -0.40273085 -0.37772703 0.0041151694 0.24524012 0.2809384 0.0091100475 0.18124732 0.21795999 0.14853068 0.008049077 0.008505605 -0.61825854 0.3023536 0.54791623 -0.49707395 0.11192077 -0.18993296 0.12353353 0.707913 -0.33910468 -0.19534506 -0.08551676 0.54163563 -0.49803758 0.05528981 0.13367787 -0.49057043 -0.14952144
1716 -0.14875652 0.6646315 0.55584824 -0.5520323 -0.027508037 0.29494765 -0.11123331 0.0029475465 0.5828138 -0.3194495 0.21131851 0.2220115 -0.081596136 -0.98929566 0.11453132 -0.37286475 -0.504586 0.279028 -0.5058655 0.53601706 -0.34700102 -0.087241836 0.3180956 0.034735084 -0.041812863 0.076845236 -0.33392036 0.5437464 0.3448184 -0.041814588 0.45390317 0.4484502 0.42928192 -0.29810104 0.01525789 0.3472062 -0.6018303 0.1494895 0.7119282 0.0026756655 0.029508319 0.2801818 0.038867358 -0.37865862 -0.26075375 0.119151056 0.086283565 0.029639974 0.6080636 0.33926126 -0.26610598 0.66984904 0.040582407 -0.1073041 -0.1724679 -0.25804293 -0.38223395 0.15497106 0.20537226 0.2707356 -0.030410206 0.017775636 0.2998464 0.6225666
1643 0.26581055 -0.14831364 -0.24913076 -0.17070033 -0.12854916 0.17957385 0.3252932 -0.035687305 -0.34202248 0.08662589 0.06455468 -0.65377253 -0.17023535 -0.5997995 0.08243726 -0.042644814 -0.009187072 0.270141 -0.22304194 0.12977506 -0.3805484 0.3053785 -0.35152134 0.114226416 -0.75694454 0.5224447 0.51932514 -0.068113744 0.306009 0.09362188 0.34326825 -0.038388707 0.04319239 -0.056182355 -0.30728853 0.0632951 -0.7584701 0.08220944 0.38695535 -0.17382565 -0.004118255 -0.08265612 -0.09814055 -0.0026035192 -0.1284789 0.08312308 0.2852523 -0.48860514 0.22941673 0.6181204 0.5430305 0.49394357 -0.071798034 -0.70401204 0.08326815 -0.233315 0.002292309 -0.13396215 0.4192474 0.44863608 0.08069399 0.1699619 0.11071371 0.9126819
124 0.36295643 -0.5271218 0.5944906 0.024709089 0.2619036 0.16029787 0.052130155 -0.3139288 0.3143994 -0.14912234 -0.13626823 -0.075863816 -0.36685738 -0.105942756 0.22683822 -0.64774424 -0.13573278 -0.053487156 -0.46230477 0.30399558 0.57913584 0.31082565 -0.091802 0.29677707 -0.133888 -0.0072499644 0.07700259 0.5308865 -0.56714064 0.19268678 -0.030517261 -0.035789642 -0.34903544 -0.31671926 0.5135382 0.01333244 -0.6181012 -0.081115 -0.0028009433 0.22586073 0.28681663 0.3697535 -0.4797228 0.29213655 0.35904863 0.36344784 0.06890064 -0.45610356 0.49558195 0.013483443 -0.37865373 -0.17072129 -0.21736382 0.31587282 -0.22077468 -0.43882465 -0.54213893 -0.25434774 0.461538 -0.3949138 -0.048015732 0.17972137 -0.045832273 0.10657645
1417 0.67987233 -0.4869805 0.4099553 -0.4810209 0.6717734 0.06700784 -0.0033422476 -0.1597086 -0.5823236 0.26044855 -0.050794296 0.30955324 -0.34014234 -0.6871709 0.29320768 -0.1594462 0.072258025 0.20638768 -0.5716339 0.42084143 0.38681445 0.039021913 -0.26193678 0.05107692 0.026709752 0.12818022 -0.23083223 0.09798445 -0.19352822 -0.24496236 0.096582904 0.16202118 -0.41131195 -0.3849667 0.22524233 0.10265326 -0.05431099 0.04261884 -0.13786785 0.3990048 -0.2151622 -0.020039456 0.29490852 -0.15720844 0.8707175 0.38350916 -0.13345638 -0.39307538 -0.11377509 0.053147342 -0.21752003 -0.061315726 -0.44894204 -0.10498876 0.19041006 0.25826296 -0.4073333 -0.55000925 0.21850786 -0.69033337 -0.31181014 0.029921176 0.24744545 0.63537294
2074 0.46437836 0.11253215 0.0044617113 -0.6649886 0.30137914 -0.21764658 0.94124347 0.1443875 0.022509381 -0.37662864 0.3216442 0.45715356 0.3445306 0.09152606 0.44543123 -0.35184056 0.25429928 0.5777154 -0.3044341 0.62151295 0.07442603 -0.23627602 0.034245886 0.43881673 -0.037803266 -0.11139063 0.5138388 0.1598779 0.5144864 0.48889634 0.356599 0.5850607 -0.43392107 -0.1835932 0.35718215 0.34253162 0.22697169 -0.31561524 -0.33710092 0.7214668 -0.3822175 0.4706082 -0.31209508 0.6157979 0.2916935 0.31386828 0.48158872 -0.06845858 0.23976806 0.159092 -0.3409536 0.1822558 0.2730823 -0.067138486 0.022608494 0.3695309 -0.35511294 -0.5838939 0.013467632 0.367509 -0.21832824 -0.009368459 0.7623179 0.76668036
1423 0.6105969 -0.20201434 0.44676936 -0.45101306 0.47678447 -0.07758404 0.10938446 -0.14085212 -0.8190934 0.2786795 -0.2059356 0.37522224 -0.23131852 -0.6624443 0.19712862 -0.32417017 0.12247438 0.30898473 -0.55801857 0.38780025 0.20558691 0.11571432 -0.26178873 -0.0006692993 0.17616668 0.064514935 -0.4057104 0.24895799 -0.064972036 -0.35793826 0.4173378 0.13319255 -0.34514022 -0.12165331 0.021766918 0.008227824 -0.096398704 -0.093091935 -0.09109971 0.3515225 -0.19398957 -0.03996142 0.052738376 -0.13903566 0.73496884 0.09104999 -0.10205024 -0.31305444 -0.14196207 0.25788614 -0.23719826 -0.20007144 -0.3309947 -0.20604576 0.37446728 0.23827618 -0.570458 -0.550978 0.18657207 -0.80710196 -0.3482471 0.21669327 0.01471822 0.43924618
119 -0.2706275 0.105759196 -0.2680161 -0.3401572 -0.07033994 -0.25678137 0.19036938 -0.01144873 -0.033187374 -0.06817897 0.31741536 0.2364414 -0.07148593 -0.35627982 0.28364456 -0.2520519 -0.11694394 0.47907043 -0.2710719 0.66637045 0.16815189 0.3940836 0.23101515 -0.31998813 -0.25815725 -0.11086533 -0.7588824 0.39237043 0.20573287 -0.2522064 0.08088239 0.15945575 -0.17605925 -0.62100726 -0.11966461 -0.38625664 -0.49786812 0.011438589 0.4075908 0.12349302 -0.06135855 -0.20854345 0.25288597 -0.24520554 -0.1958336 0.57391334 0.5071068 0.034420047 1.0374451 0.17537716 -0.11624251 0.86834407 -0.28742734 0.26081088 0.10086972 -0.5477273 0.32089612 -0.2590905 0.10781459 0.022466704 -0.13929167 -0.1339716 -0.17317533 -0.25267684
1 0.16153988 -0.08603497 -0.16695358 0.13685451 0.11104158 -0.14903583 0.51302046 -0.29639626 0.0046408917 0.5591314 -0.003042067 -0.6108541 -0.4404155 0.03245402 0.14056034 -0.18990172 -0.41267836 0.36832014 -0.18555619 0.10156656 -0.21587594 0.38709417 -0.21335559 0.32143235 -0.566628 0.049640696 0.41457817 0.0959832 0.062267307 -2.2608405e-05 0.50879776 0.16651765 -0.15402101 -0.25225413 -0.44117162 0.06411744 -0.6284232 0.711439 0.39186093 0.14458618 0.03013088 -0.27139884 0.8890242 0.48998955 -0.30724493 0.25447667 0.27869523 -0.41438112 -0.047592416 0.6244043 -0.19310135 0.37065467 0.19283293 -0.32686976 -0.14616144 0.12089136 -0.04154656 -0.051426277 0.55958074 0.6208014 0.16298662 0.14729428 -0.10456094 0.6189989
1509 0.524859 0.07606508 0.28799567 0.27698147 0.4124947 -0.3092097 0.40227944 -0.0010769189 0.1075559 0.9062784 -0.21317278 -0.24686033 0.5478987 0.086792536 0.78340787 -0.09008249 0.15438691 0.24831973 0.19100505 0.19477801 0.005247731 -0.43603253 0.3530781 -0.0058408035 -0.07508671 -0.10480795 -0.07915784 0.12371222 -0.043375492 0.03864144 0.53109014 -0.0065821656 0.038364697 -0.0664098 0.6937087 0.07462814 -0.39230764 -0.19454753 0.55527985 0.13604139 -0.13404134 -0.23566297 0.012196611 -0.008693072 -0.56824327 -0.08126367 0.3101718 -0.375231 0.17035088 0.006010989 0.28755003 0.349567 -0.26151356 -0.26027027 -0.056648113 -0.29097983 0.4481639 0.11340241 0.10632584 -0.44716853 0.12696287 -0.5461984 -0.16095452 0.6648575
63 -0.14728345 -0.24989344 -0.22771597 -0.12032413 0.07572463 0.16824517 0.50525045 0.23096497 0.0451615 -0.06118701 -0.5337522 -0.1275758 -0.7343347 -0.17724226 0.2129854 -0.12479235 0.463912 -0.23715003 -0.11367852 0.26734427 0.40308508 0.27565953 -0.36934546 0.32688618 -0.24783851 -0.4718295 0.1495545 0.5580275 -0.54472154 0.12742998 0.12630548 0.226123 0.14945975 -0.5854499 0.17297122 -0.27231145 -0.43394905 0.7463422 -0.021850199 0.0073104883 -0.30258557 0.3511517 0.11778256 0.266168 0.42662054 0.2310712 0.38784298 -0.59502965 -0.07047926 -0.0556685 0.29278514 0.513884 -0.6335974 0.0995113 -0.38831758 -0.24219379 -0.2631904 0.118909344 -0.19473712 -0.24605516 -0.35566664 -0.019780159 -0.16700238 0.49667037
75 -0.40698028 -0.25321096 0.31580836 -0.22183304 -0.08644843 0.09915224 0.14857502 -0.20657268 -0.4226886 -0.4340772 -0.08891235 -0.3234292 -0.13281244 -0.10476067 0.7647687 -0.20898722 0.33665583 0.38791227 0.2646931 0.5817383 0.14625438 0.1075282 -0.054994028 0.21641044 -0.12165053 0.38120517 0.034127556 0.6129975 -0.4746303 -0.1962532 -0.15668875 0.11817083 0.0033008745 -0.36237895 0.27980962 -0.18856855 -0.31916505 -0.36068645 -0.24689232 0.9254154 -0.09519683 -0.47112787 0.3169248 -0.15658233 -0.39922798 -0.21251303 -0.13247041 -0.29213825 0.22893403 0.4527008 0.096055806 0.3727332 -0.2616284 -0.030120244 -0.01730672 -0.28452426 0.032318894 -0.14039187 0.21389593 -0.12980254 -0.4265429 -0.05676165 0.022477845 -0.26249665
411 0.19688757 0.3454124 0.5263242 0.19998027 0.592475 -0.06417586 0.5593931 -0.04039683 0.2002294 -0.54747933 -0.26465422 -0.2512732 -0.42728624 0.53515667 0.15656899 -0.53072786 -0.05112972 -0.09814619 -0.123068556 0.48437923 -0.15529889 -0.09432295 -0.06659012 -0.23083882 -0.4299286 0.011161775 -0.17303854 0.043739017 0.022212625 -0.01396201 0.66060454 -0.17942587 0.16480362 -0.85663277 0.28965223 0.18713753 -0.30945158 0.15148935 0.44430527 -0.11017699 -0.2863289 -0.045316 -0.13563147 0.40537432 -0.6303666 0.031756423 0.4334064 -0.044775713 -0.53506166 0.15298456 0.39602354 0.42552736 0.7224061 -0.24297799 0.40846398 -0.30330828 -0.15667965 -0.13664697 0.39779702 -0.2053096 -0.26599213 -0.21251726 -0.18916658 0.41574797
2049 0.54023594 -0.002293688 0.4360502 -0.29018772 0.42233226 0.008477254 0.6349547 -0.16310968 -0.04491142 -0.09202355 0.35813308 0.17641674 0.45787817 0.23540057 0.31325817 -0.2577342 0.9604531 0.3354993 -0.56451327 0.50162363 -0.10783424 0.111756735 0.17203192 -0.091531724 -0.32567948 -0.28311282 0.53830963 0.1512817 0.58403605 0.52004 0.19602555 0.68156505 -0.45638564 -0.07375786 -0.009927927 0.030447694 0.20452602 0.049864277 -0.09273084 0.88222516 -0.3831854 0.08382047 -0.35264382 0.6734247 0.4776325 -0.2753427 0.5026813 -0.20827499 0.63179743 -0.20599839 -0.2368166 0.3677893 0.21609871 -0.09669393 -0.026172755 0.28636396 -0.23799947 -0.19103022 0.22445662 -0.48964387 -0.5622385 -0.06153266 0.40680104 0.50573695
47 -0.29475802 -0.20484217 0.06853742 -0.02756353 0.036927626 0.057418276 0.31051347 0.15880975 -0.5258208 -0.17829444 0.07926383 -0.11061105 -0.005050548 -0.2215497 0.45858246 -0.2597183 -0.035688024 0.4077233 -0.005647068 0.38908833 0.33301324 -0.0852455 -0.0153174605 0.33832225 -0.24091008 0.26917216 -0.4258114 0.61813617 -0.50003374 -0.3207823 -0.12445969 0.10836636 -0.015462737 -0.52126443 0.47571215 -0.54083395 -0.39697722 -0.06402391 -0.2209044 0.98175573 -0.17838895 -0.42351326 0.27031296 -0.27721152 -0.10838084 0.29940426 0.10757773 -0.26185444 0.6252593 0.13237704 0.29895747 0.4330123 -0.14308502 0.02609032 -0.04714118 -0.8016365 0.21666959 -0.32414594 0.14515015 -0.03458399 -0.31006798 0.26888457 0.39674905 -0.25304076
461 0.22614163 0.25135216 -0.339793 -0.1704993 0.3322695 0.51315486 0.7175963 -0.48139423 0.038083915 -0.34022534 0.028350223 0.35034662 0.058317654 -0.43253636 0.23692629 0.15100074 -0.2586492 0.6954097 -0.32139277 0.34373936 0.12336863 -0.19817606 -0.04064623 0.024446355 -0.78251773 -0.059989974 -0.49441057 0.1136959 -0.19461015 -0.31415015 0.38830575 -0.009676744 -0.3520626 -0.40062204 0.37555498 -0.6717908 0.14837371 -0.27214438 0.35503078 0.058446486 0.010152823 0.052756883 0.30257222 0.013216484 0.30082375 0.4031015 0.7707541 0.04666302 0.7292433 0.69451165 -0.30887717 0.6125269 -0.06353763 -0.10968192 0.57307476 -0.02563386 0.08411449 0.5650792 0.019192737 -0.24203202 -0.05787722 -0.3089689 -0.44245982 -0.11139739
962 0.5114615 0.27150375 -0.38633564 0.3077183 -0.13095845 -0.24759088 0.55765104 -0.3645962 -0.4728756 -0.22666447 -0.24443735 0.4605786 -0.35332578 -0.8298727 0.44066328 -0.45350274 0.08389568 0.6989307 -0.39897358 0.019926826 -0.12602992 -0.5523807 0.15599746 -0.3981613 -0.46339512 0.03753981 -0.1004224 0.24514008 -0.35763127 0.57194257 -0.10965019 -0.05115927 0.0072120707 -0.317333 0.13663363 0.3079089 -0.07308447 0.41520604 0.40144145 0.17707868 0.22093235 -0.5743859 0.25501534 0.5360191 0.08985775 0.0689158 -0.10718986 -0.3680886 0.56305057 0.4625469 0.018491352 0.47272858 -0.14932941 -0.017402874 0.0010239602 0.04537281 -0.02113337 0.18897806 -0.6953828 0.08373633 -0.040727075 0.15038322 -0.228512 -0.15214674
89 0.30316237 -0.6717378 0.6610457 -0.15282297 0.38056758 0.00807978 0.030689767 -0.08629055 0.025643649 -0.18446462 -0.37317243 0.16210248 -0.08804043 0.26001346 0.22387554 -0.37390035 0.33611163 0.88482285 -0.082960464 0.19804874 0.2223171 0.38100258 -0.3264939 -0.042465515 -0.56307554 -0.029221559 -0.14077598 0.5373391 -0.70979077 0.20227885 -0.049710438 -0.03793895 0.20873716 -0.67495084 0.3165188 0.22175775 -0.64265925 -0.041061778 -0.089021385 0.18074833 -0.08915426 0.002097636 -0.15747449 -0.11659955 0.3906429 0.3515178 0.132384 -0.100691676 0.007311596 -0.20707609 0.2004531 -0.25652885 0.45119476 0.36968687 0.11277747 -0.6158351 -0.411264 -0.1807239 0.2925038 -0.5448621 -0.04392971 -0.08768889 -0.00011241455 0.16758072
1433 0.6217261 -0.40830106 0.3828545 -0.4683769 0.5527025 -0.18486485 0.08652905 -0.17322323 -0.69403696 0.235947 0.009698893 0.32633844 -0.3350469 -0.74302894 0.36007777 -0.14932306 0.120854735 0.3670226 -0.48556602 0.34235737 0.23802853 -0.020835143 -0.14877948 0.119081736 0.107116066 0.14240855 -0.33115846 0.1663584 -0.20522356 -0.2577472 0.2289486 0.20331976 -0.40474492 -0.286686 -0.045778517 0.06378445 0.03616401 0.1155647 -0.091437295 0.47358555 -0.17573044 0.013931744 0.17536883 -0.08580248 0.931712 0.23446529 -0.094082646 -0.295731 -0.16603453 0.23008594 -0.313636 -0.069397315 -0.22962272 -0.30762374 0.21510251 0.30536422 -0.32420203 -0.6522132 0.1712283 -0.76946616 -0.510535 0.05759387 0.060626272 0.49863896
244 -0.14816678 -0.94232273 0.8932233 -0.25305817 0.36148652 -0.27645677 0.12463454 -0.0220931 -0.06923431 -0.16994365 -0.13862896 0.40870637 0.1735262 0.000684985 0.03944547 -0.10658442 0.26564324 0.50657845 0.11007737 0.7146151 0.27930182 -0.109926365 -0.21594048 0.13046782 -0.07499591 0.18642594 -0.23296933 0.0962022 -0.3438206 0.1706095 0.24504791 0.14824773 0.09901916 -0.097959906 -0.0789286 0.21494678 -0.2601264 -0.070201784 -0.005941373 0.12642023 0.17624307 0.3979267 0.09684739 0.060070157 0.31846178 0.037830774 -0.0137116555 -0.3913691 -0.1680542 0.24185055 -0.031188224 0.1906925 -0.34302643 -0.21061967 0.53014994 -0.5954893 -0.5225772 -0.5920561 0.43701485 -0.41484064 0.23856622 -0.09457673 -0.2257752 0.58023125
536 -0.06390418 -0.68340313 0.33732367 0.25678182 0.37342778 0.14566307 0.166964 0.038514577 -0.22991663 -0.39840147 0.2695612 0.008210537 -0.123239234 -0.17278114 0.5392655 -0.35500205 0.5126887 0.5656316 0.0018675127 0.31009212 0.31784979 0.10847975 -0.2814045 0.30367443 -0.27104318 0.2551178 -0.1974886 0.37209293 -0.5178028 -0.42328477 -0.38360482 0.1340997 0.32845023 -0.44753695 0.47099775 -0.10004544 -0.7806322 -0.3489954 -0.40413484 0.87027556 -0.4037935 -0.46493176 0.2397747 -0.25367263 -0.080634534 -0.16388822 -0.24701475 -0.04179657 0.33379066 0.2619366 -0.076511994 -0.0025776974 -0.060596332 0.44024312 0.1662404 -0.35014597 -0.19520904 -0.010312161 0.305705 -0.13702646 -0.19571528 -0.31517345 0.2414863 -0.19349298
1628 -0.008896723 0.25910112 -0.19198853 0.10126511 0.29086822 -0.07921899 0.38798723 -0.5023444 -0.33838078 0.052640446 0.24578422 -0.42427298 -0.21949947 0.019403659 0.07533288 0.09379077 0.29537597 0.46407858 0.0046288953 0.36803427 0.027437124 -0.24651572 -0.44986713 -0.22481214 -0.42809674 -0.0032033052 0.36412984 0.16400471 0.33744314 -0.3552352 0.33837327 0.16820289 -0.044442993 -0.37542388 -0.120703064 0.3647658 -0.9008135 0.23475052 0.5543566 -0.3112687 0.069071576 -0.45850024 0.2802484 -0.036364205 0.18565817 0.051369477 0.59382147 -0.55655897 0.1897627 0.7529658 -0.047402572 0.087927856 0.26541233 -0.3346844 0.103507414 -0.15690021 0.2986608 0.15109622 0.4879803 0.38333064 0.39716882 -0.019587621 -0.04624765 0.6157826
88 0.18695629 0.18717773 -0.085502625 0.09097341 0.3042024 0.66569936 -0.073763445 -0.26912224 -0.18835333 -0.025005732 0.044227637 0.31530243 -0.1503929 0.010195204 0.5789427 -0.5154615 0.15538312 0.110792376 -0.05131345 0.2024228 0.33128065 -0.11325993 0.14225297 0.47600463 -0.027659224 -0.06390095 -0.7860869 0.50544095 -0.15077591 0.5532627 -0.14107226 0.27954566 -0.17403461 -0.7089651 0.5828037 -0.20544443 -0.62927264 -0.011564351 0.051145945 0.48346326 0.16311002 -0.17102715 0.2313451 -0.015968451 -0.05703188 -0.22521928 0.14569463 -0.30833006 0.40959468 -0.116248116 0.10851956 -0.037952278 -0.5953136 0.113164455 0.2656596 -0.15699576 -0.1282371 -0.80569446 0.5269413 0.3755113 0.2103585 0.6008889 0.24092583 0.31536648
1403 0.605718 -0.3143223 0.32756707 -0.42720854 0.44675896 -0.16218247 0.015109239 -0.10518556 -0.64215994 0.14122236 -0.16919869 0.23235475 -0.31988698 -0.7660723 0.4151899 -0.13020241 0.052792594 0.3372013 -0.42996973 0.38004857 0.23705962 0.017966362 -0.15326269 0.014857668 0.030818718 0.03630951 -0.34363878 0.11743724 -0.24305807 -0.20112392 -0.05899947 0.13869442 -0.3686886 -0.35004422 -0.015333602 0.10708989 -0.0032818809 0.04071853 -0.16391753 0.4698828 -0.15837076 -0.090608366 0.14199656 -0.19336243 1.0030274 0.24545586 -0.19360177 -0.25444216 -0.09792568 0.19929165 -0.29686007 -0.03588236 -0.35155064 -0.31128597 0.24501652 0.2376523 -0.4931651 -0.6967001 0.16947006 -0.68192667 -0.485844 0.11911065 0.03857824 0.6862008
396 0.3238169 0.08968304 0.09292894 0.17413552 0.28411835 0.6479278 0.92766386 0.15043165 0.2854085 -0.29358706 -0.061529845 0.4423014 0.29995292 0.01817354 0.24177921 0.20985399 -0.070802115 0.42983004 -0.30180326 0.06822638 0.16174537 -0.17985182 -0.3236742 -0.055530258 -0.581051 0.2155644 -0.3564526 0.007217246 -0.04335558 0.017137554 0.55336297 0.11766759 -0.38274786 -0.32567707 0.08504926 -0.42410272 0.37025598 -0.14587794 0.13021956 0.21680014 0.009152588 0.051183976 0.18115723 -0.21642207 0.279203 0.22545883 0.43417442 0.20396788 0.670223 0.7043529 -0.31696528 0.4723781 0.15337211 -0.19604962 0.6498611 0.13934192 -0.011558065 0.5029117 0.0595248 0.25092223 -0.092636585 0.025281496 -0.31871164 0.23280337
623 0.35702196 -0.082984306 0.0102673555 0.15802266 0.88438433 0.2227551 0.045260854 -0.50453407 -0.32767627 -0.57034045 0.33067673 -0.28963393 0.46430588 -0.4560651 0.34099555 0.2766753 0.30686516 0.2049679 -0.3259042 0.13539796 0.08218745 -0.3566564 0.28909615 0.14195058 -0.26999155 0.45522413 0.04152709 0.07241804 -0.3913945 -0.22804709 0.5262984 0.44812244 0.19842575 -0.24896844 -0.045392178 -0.43927747 -0.01619109 -0.60187745 0.15025873 0.76234967 -0.12023555 -0.31770435 0.13278092 -0.65452504 0.32782522 -0.044273924 -0.06713225 -0.53565794 0.0133175235 0.54759526 -0.04574559 0.2440181 -0.026914394 0.24931553 0.0030607136 0.0084109055 -0.60740393 -0.24390927 0.04552396 0.09468348 -0.31800756 -0.3159065 -0.17769182 -0.5101381
475 0.020482613 0.03417155 0.41090137 0.11992115 0.41748205 0.3295647 0.6070088 -0.0264127 0.036178045 0.0012525168 0.2614906 -0.3635269 0.10177619 -0.4018121 0.797406 0.0010509231 0.2123174 -0.15659642 -0.06767548 -0.1541471 0.40913275 -0.5739092 -0.14887358 0.31068614 -0.15064651 0.49767932 -0.14986496 0.34450728 -0.29703996 0.1966677 0.6000426 -0.01887781 0.2048709 -0.1449945 0.13454305 -0.08212279 0.27346718 -0.16794203 0.12112249 0.4151516 0.022510435 0.03625091 -0.27205855 -0.057144154 -0.16343257 0.24905193 -0.20625025 -0.11807179 -0.23803452 0.51923895 -0.4630063 0.26164168 0.40341973 -0.012455693 -0.48641002 -0.17273563 -0.44438493 -0.15202588 -0.18432678 0.4891051 -0.37339735 -0.4205198 0.3757364 -0.07317361
90 0.24968447 -0.07767762 0.25255993 -0.29822353 0.37902278 0.00949976 0.52136904 -0.08229853 -0.1288502 -0.28374407 -0.2508143 -0.35563633 -0.5389195 -0.16755359 0.4811555 -0.5764077 0.22733814 0.4176976 0.39683783 0.49294272 0.093439296 0.11414881 -0.3287748 0.007385111 -0.16066216 -0.16082525 0.042846613 0.7579411 0.01971259 0.4756884 -0.3129843 -0.60390055 0.26709992 -0.24363163 0.5485999 0.323302 -0.62837076 0.28073928 0.6167165 -0.0016818041 -0.19275598 0.12817843 0.041703608 -0.0009204316 0.6109421 -0.14310208 0.4209129 -0.3348139 0.29190823 -0.23182227 0.16777867 -0.0742955 -0.5254112 0.18826635 -0.21942921 -0.63540584 -0.42519704 -0.009017889 0.2528616 -0.36992157 -0.23708126 -0.19956945 -0.0033598715 -0.1482905
1663 0.37117228 -0.053919118 -0.13617685 -0.21955623 0.05270059 -0.006894191 0.42491272 -0.5678514 -0.2325868 0.016201105 0.12148821 -0.5088797 -0.21518515 -0.19184574 0.13695903 0.19416901 -0.18137817 0.34947538 -0.45174742 0.08625569 -0.36275846 0.17886873 -0.31365347 0.1932971 -0.559574 0.0076162117 0.3436022 0.10292351 0.24546923 -0.08637403 0.3861336 0.22746097 0.08190328 0.14559889 -0.38046563 0.2294616 -0.71321106 -0.08468954 0.1624761 -0.11004018 -0.19220276 -0.33538964 -0.023125743 -0.20362577 -0.112088434 0.1457747 0.5863663 -0.45042655 0.30458096 0.7589589 0.35299817 0.38011482 -0.008873562 0.11181145 -0.089999914 -0.042015597 -0.040584914 0.20401093 0.5551943 0.17677832 0.24803033 0.26946437 -0.12472927 0.9355137
1815 0.03274606 0.80871946 0.5091403 -0.5812279 0.17926677 0.049109798 -0.10483212 -0.0023301651 0.6456217 -0.12193661 0.32357267 0.10267462 -0.16249877 -0.88135576 0.20711967 -0.3611316 -0.5232366 0.21224114 -0.4009742 0.62199074 -0.36063093 0.28194922 0.24912529 -0.22591148 -0.41677138 -0.062313013 -0.39879775 0.30112472 -0.016737157 0.35391486 0.32968524 0.44008228 0.42090586 -0.16646038 0.15961234 0.047763165 -0.6110072 0.16485652 0.55881095 0.26489657 -0.024555877 0.27120224 -0.08536082 -0.4318649 -0.20148648 -0.18821591 -0.031560674 0.19758926 0.42662472 0.35812482 -0.37000972 0.53303427 0.050426032 -0.33519962 -0.2814796 -0.33510697 -0.034839623 0.105618 0.4213142 -0.09434217 -0.07654176 -0.046329908 0.037976798 0.57707065
515 0.4140216 0.21659672 0.25491014 -0.25507033 0.15620549 0.2332483 -0.24423245 -0.06304094 -0.14620832 -0.10081349 0.90663344 0.064440936 -0.52298 -0.49866486 0.3779715 0.020006128 0.021792857 0.40256265 -0.1329567 -0.12628473 0.14426464 0.2860655 -0.38579997 -0.22846515 0.16233353 0.020915098 -0.09630893 0.19302937 -0.07923989 -0.014392745 0.6668958 0.3246852 -0.5108061 0.010847085 -0.43447328 0.22794197 -0.009109273 0.13344394 -0.570678 -0.081614904 -0.3039112 0.05894237 -0.2163242 -0.0355204 -0.19333841 -0.06611489 -0.18009302 -0.8547885 0.6804469 0.74790907 0.45951906 0.4774327 -0.21318023 -0.3029025 0.09538953 -0.69402677 0.4736046 -0.2226637 -0.07530431 -0.25567028 0.4400533 0.48382685 -0.4679258 0.94481546
1261 0.17730634 0.41132674 0.1971013 0.0333295 0.3339754 0.16859072 0.33653566 0.19676845 0.41507187 -0.02452506 0.2945347 -0.45539695 0.20484686 -0.6169915 0.66478187 -0.49195576 -0.02638873 0.2881413 -0.11476125 -0.29159233 0.04721235 -0.47885737 0.2500235 0.75707626 -0.056899175 0.4906493 0.07313628 0.49378508 -0.17637381 -0.2873863 0.73131067 -0.15414764 -0.21438448 -0.34579286 0.18704405 0.4784709 0.34049892 -0.13741809 -0.51078266 0.40245187 0.10900485 0.25650787 -0.01396963 0.26702905 0.3038131 -0.39366436 0.04517344 -0.06852305 -0.13464597 0.21078514 -0.43568915 0.4149307 0.120971315 -0.041213784 -0.3647026 -0.8474486 -0.31820962 0.32015276 -0.12532327 0.37785593 -0.36306015 0.08690064 -0.056952346 0.39415175
344 -0.05268788 -0.24308863 0.039444905 -0.5353882 0.17516677 0.19874741 0.43512037 0.36765125 -0.32585335 -0.012369281 -0.038366884 -0.5422368 -0.09714354 -0.053953104 -0.13644023 -0.24588819 0.5663266 0.7328888 0.13317539 0.31070176 0.46148264 -0.36243403 0.44681647 0.41477814 0.45489076 -0.09042782 -0.50523984 -0.34972224 0.15613247 0.43562585 0.55172795 -0.08995758 0.033270147 0.42005068 0.15308851 -0.2843795 -0.13037169 0.50364196 0.26067057 0.40818608 0.5239485 -0.48680797 -0.026364688 0.08499998 0.097766176 -0.29574844 -0.2132631 -0.18860793 -0.031564254 0.27799433 0.17065744 0.4807196 0.59182626 -0.38330734 -0.057049118 -0.27442965 -0.3068855 0.35209957 -0.3665721 0.07795228 -0.33853856 -0.69185066 0.075790815 0.641567
242 -0.10143956 -0.6728092 0.33990017 -0.80451 -0.15161014 -0.25040475 0.31047964 -0.029267596 0.005426875 0.08800934 -0.14913152 0.14015843 0.4095224 -0.20321763 -0.06666317 0.22002155 0.026124958 0.5446729 -0.31680033 0.46959725 0.273456 -0.40318885 -0.18938597 -0.22168258 0.3513832 0.12200348 -0.14965576 0.08773129 -0.31608793 0.030437697 0.259877 0.09666721 -0.31732777 -0.50801134 -0.2354219 0.0681417 -0.023647165 -0.22983582 0.18016355 0.28405377 0.43683353 0.1993154 0.14986849 0.17485805 0.50074023 -0.07649524 0.17168301 -0.26300997 -0.025566412 0.67352974 -0.4564957 0.2314054 -0.2102062 0.20064409 0.7377992 -0.13283513 -0.45566756 -0.3166593 0.25309217 -0.3762758 -0.020376422 -0.093573675 0.019564046 0.35294217
185 0.30996668 -0.43224725 0.34136638 -0.35784912 0.28189465 0.030586572 0.021822287 -0.07185313 0.012450184 -0.042224932 -0.37527066 -0.22903548 -0.10582931 0.16735864 0.33956075 -0.3471091 0.14273693 0.51579714 -0.21631238 0.6352423 0.47162846 0.47351784 -0.025928752 0.2782863 -0.6215435 0.11942601 -0.42086607 0.27187854 0.0036616724 0.34804818 -0.12053217 -0.2350282 0.11990336 -0.26428065 0.16365683 0.20131834 -0.6581895 -0.04652072 -0.1966686 0.22627448 0.56622136 0.26629934 0.05524073 -0.20308226 0.4358006 0.17120177 0.3965191 0.1340457 0.21957135 -0.047565486 0.045299172 0.36052495 -0.38434115 0.18062583 -0.13765837 -0.72085947 -0.17543417 -0.47810754 -0.0027240454 -0.32519165 -0.09925776 -0.3181518 -0.52802986 0.04359393
1449 0.31786785 -0.26326257 0.31262827 -0.3600239 0.6341484 -0.20710602 0.0015540937 -0.16358243 -0.5932521 0.055441357 0.069807105 0.45047122 -0.4961713 -0.7077734 0.39637688 -0.23228788 0.07722554 0.25907177 -0.5846834 0.56435597 0.44907227 -0.1056842 -0.14825742 0.21459551 0.19018765 -0.0061418773 -0.3638891 0.10637594 -0.40237084 -0.23518273 0.14059879 0.21124524 -0.4729482 -0.27946043 0.16333261 -0.09777888 -0.12183404 -0.07192266 -0.20133664 0.22732426 -0.29169276 0.07452797 0.001131198 0.08671051 0.8890124 0.18925434 -0.023423139 -0.41815674 -0.22867914 0.22894843 -0.10991322 -0.0001432127 -0.28273237 -0.29752555 0.034936726 0.36838013 -0.4445985 -0.64723516 0.12813951 -0.8514635 -0.3587928 -0.097146004 0.2496838 0.60073483
451 0.50182027 0.4978872 -0.009082934 -0.18952154 0.5892064 -0.29197705 -0.031297423 -0.029722359 0.49581692 -0.09867528 0.52040607 0.18587245 -0.25920165 -0.50971985 -0.17776464 -0.3112755 -0.63880986 0.22092883 -0.396302 0.38280675 -0.5546446 0.46586233 -0.19143765 -0.3139219 -0.09247673 -0.08081979 -0.10454447 0.1741418 -0.15816322 0.113105 0.85555696 -0.036449425 0.19617209 0.13460727 -0.21331307 0.010345706 -0.56118745 0.2177305 -0.028514639 0.3185243 -0.07713729 0.4063233 -0.24230988 -0.40986022 -0.11613582 -0.2366418 0.056714647 -0.3697381 0.32300276 0.88871944 -0.15204608 0.9200556 -0.13837868 -0.55860466 -0.41694716 -0.47214705 0.42685565 0.33497086 0.077586204 -0.16457139 -0.24953797 0.4225598 0.037961707 0.5668543
922 0.67069703 -0.3937926 0.008944644 0.08273616 -0.057194687 0.077805884 -0.08212669 -0.029927267 -0.37474585 -0.062656686 -0.1608441 -0.20040105 -0.093245976 -0.17611209 0.0056929043 -0.41626605 -0.015569255 0.13273151 -0.7300998 -0.012778611 0.21494785 0.37465605 -0.5057235 0.15848692 0.02090608 -0.0029411358 0.6088525 0.18752865 0.08017828 0.24874993 0.64040995 0.14906693 0.72568965 -0.12325763 -0.12788855 -0.06830868 0.00845595 0.34177133 0.42328042 0.22913781 -0.44524595 -0.42272472 -0.08844614 -0.25591347 1.1239299 -0.123587154 -0.16896632 0.17744428 0.4845016 0.46954572 0.12403065 0.33671135 0.07553282 -0.72593963 -0.044679377 0.11715542 0.611324 -0.16343638 0.05285245 -0.13232708 -0.3465357 0.24793574 -0.03412033 0.5753517
1413 0.096814014 -0.57007796 0.5937111 -0.412103 -0.17193419 0.118812375 0.00013681778 -0.013065446 0.079892114 0.018935136 -0.40615237 0.14706028 0.296149 -0.4788088 0.32127917 -0.57238466 0.2835815 0.36292484 -0.29008648 0.84917206 0.3383194 -0.06425538 -0.23946562 0.17305055 -0.08593185 0.3247241 -0.04784748 -0.02619401 -0.47707963 0.12911335 0.1503426 -0.16043916 -0.32197443 -0.012286374 -0.14978334 0.23486684 -0.27281654 -0.22512588 -0.12138345 0.23902513 0.123568416 -0.1318206 -0.07828006 0.31457305 0.61643636 0.21920216 -0.041541133 -0.42947719 0.057142343 0.5840245 -0.28105515 -0.107516125 -0.6067761 -0.15738587 0.48737526 0.00474358 -0.6917361 -0.4635318 0.25898674 -0.9597955 -0.03307197 0.11141976 -0.099550314 0.38416162
304 0.34384578 0.51559186 -0.28077447 0.19643402 0.13835025 0.10971971 0.6988532 -0.13205819 -0.15908758 0.647066 0.447595 0.036213804 0.12608665 -0.023622142 0.49160278 -0.20512246 -0.45582747 0.2732885 0.086394906 0.19608232 0.23103417 0.6911593 -0.10967176 0.341408 -0.31966448 -0.15459144 0.33660212 0.480177 -0.4247723 0.12250609 0.3769302 0.500143 0.284344 0.25768515 -0.1363695 -0.18291625 -0.36654177 -0.032114267 -0.14705305 0.30874336 -0.33248472 -0.4583828 0.39899528 -0.19697624 -0.42206997 -0.041095115 0.03157718 -0.046592638 -0.039149176 0.19067325 -0.10656187 0.49786654 -0.072663076 0.18299802 0.6464517 -0.9173986 -0.4571062 0.24515484 0.13923949 0.04169775 0.055507224 -0.27011147 -0.09086609 0.45394853
1331 0.107709706 0.29450846 0.4364447 -0.10173661 0.45226043 0.17701308 -0.1147423 0.08397606 0.28014335 -0.15930638 0.54838306 0.03255433 -0.047617607 -0.8576077 0.38857666 -0.6242808 0.00415108 0.7140192 -0.23637365 -0.41074702 0.06716558 -0.11962908 0.39585635 0.3308067 0.35439208 0.48020762 0.23880488 0.659608 -0.21461096 -0.19342707 0.51179624 0.16796958 -0.09755951 -0.52218604 -0.2134059 0.28773606 0.49397445 0.3190234 -0.4234062 0.2309415 0.3531004 0.024309296 -0.11615529 0.18882579 0.10792729 -0.3042658 0.17068063 -0.15157612 0.4276799 0.37932548 -0.37145692 0.39200088 -0.24176843 -0.13832812 -0.47359976 -0.6610019 0.4157491 0.048119627 -0.47311297 0.032927334 0.043883137 0.44106182 -0.24817772 0.8144517
2404 -0.041710775 -0.3021511 -0.41267464 -0.63317317 0.14107576 -0.073962994 0.04265914 0.4227795 -0.17394686 -0.072408624 -0.33231935 -0.22648288 -0.2185148 0.61256343 0.44629762 -0.09259855 -0.17673847 0.217025 -0.22295351 0.5437102 0.17637582 -0.45945007 0.13629149 0.17338434 0.28519163 -0.049599875 -0.03354983 -0.02760617 0.26045817 0.5473 0.6455968 0.53252244 0.0028428119 0.026137881 -0.33610067 -0.48652303 -0.29207733 -0.08867502 0.094572775 0.73205537 0.052214824 -0.44871846 0.38588256 0.4226703 -0.4817759 -0.18497954 0.09064111 0.088913694 -0.00340847 0.22427839 0.19985798 0.7937021 0.5838838 -0.45047218 0.32985878 -0.22924025 -0.49053758 0.49895167 0.041069787 -0.419137 -0.30721873 0.08489293 0.18215282 0.55993557
1439 0.39836863 -0.36257237 0.31940612 -0.3583407 0.66172135 -0.20987555 0.080894805 -0.2176792 -0.4941525 0.20707357 0.18499342 0.46802276 -0.42547944 -0.7008531 0.44010165 -0.10908105 0.23769303 0.17418186 -0.51159644 0.49326968 0.40865436 -0.016288506 -0.083997376 0.25080755 0.11105398 0.05328813 -0.26964918 0.10815728 -0.46559924 -0.23678775 0.22927491 0.1981881 -0.5957761 -0.2168705 0.051962826 -0.043824747 -0.12608798 0.025086638 -0.0820408 0.31766436 -0.30087024 0.020233382 0.044400506 0.028181387 0.94566345 0.27655205 0.020678721 -0.35769287 -0.2965295 0.2680689 -0.23440754 -0.041040108 -0.22474858 -0.30386186 0.22947127 0.29182294 -0.41044322 -0.53347063 0.058697816 -0.8481112 -0.34905207 -0.03556374 0.15704726 0.52940106
419 0.38458648 0.16078359 -0.085982904 0.4302862 0.2704758 0.8500262 0.70417595 -0.028298562 0.23127162 -0.3353591 0.2251038 0.19453946 0.15394379 -0.10881947 0.24703859 0.241107 -0.2805471 0.57274044 -0.06656273 0.1906553 0.21629067 0.09773549 -0.2871511 -0.23081881 -0.5190196 0.35369393 -0.31968156 -0.14630067 -0.16972847 0.039660517 0.4761319 0.34589288 0.02886366 -0.50182045 0.19817644 -0.18985651 0.29169354 -0.10872913 0.06992799 -0.17425735 0.057816777 0.24661496 -0.05487045 0.21599762 0.059801914 0.03811135 0.40191478 0.087917276 0.46439403 0.6480326 -0.45715648 0.62662387 0.27608362 -0.21557388 0.63135237 -0.065839134 0.19791791 0.20622543 0.01769599 -0.017661966 -0.18046127 -0.36599487 -0.2539712 0.10608615
1398 0.58601606 -0.05968361 0.3123062 -0.27282807 0.69424343 -0.29514048 -0.0018685029 -0.087348506 -0.6305341 0.17103828 0.323353 0.5225901 -0.5700669 -0.6534397 0.23533756 -0.28701276 0.057101157 0.23867957 -0.63142335 0.67711663 0.42970818 -0.15152124 -0.08646406 0.29094937 0.20564099 0.09212593 -0.2574466 0.26688442 -0.48363927 -0.079775885 -0.10586411 0.14265725 -0.52525973 -0.19822937 -0.0247549 0.008147775 0.054219745 0.0611469 -0.09111344 0.40590873 -0.2593727 -0.0029445332 0.05398502 0.033394303 0.85523856 0.26966918 -0.03667992 -0.55950236 -0.23631638 0.11512544 -0.077375084 0.05183572 -0.36978352 -0.30714893 0.25841147 0.21756041 -0.42998403 -0.5430173 0.41274908 -0.65410465 -0.18541044 -0.080360666 0.008339328 0.5280403
1732 0.34819356 0.2629309 0.11563057 0.00876706 0.38232818 1.0165542 0.33283487 -0.024316587 0.2643505 -0.101799 -0.16342509 -0.50213164 0.27222604 -0.28545073 0.089416176 -0.40414292 -0.33126476 0.49413636 0.1715241 0.81756264 -0.3426411 -0.33259407 -0.14944598 -0.31985772 -0.37033966 0.33154356 -0.3128371 0.21724424 0.019224571 0.7832146 0.22821349 0.6937763 -0.23988126 -0.24803397 -0.05450486 0.29757768 -0.21339348 0.3643697 -0.08507479 0.07272463 -0.5026946 0.44078657 -0.21882565 -0.33272967 -0.16028497 -0.03640428 0.23670186 -0.48626792 0.09278525 0.6924117 -0.3346917 0.63113767 0.79134625 -0.22792183 0.6236047 -0.16673122 0.07162555 0.004004565 0.2697938 0.010284369 -0.07538107 0.22813092 -0.058232572 0.16577463
2186 -0.26191777 0.16378042 -0.007138676 -0.0024012087 0.66887754 0.36055025 0.40689534 -0.061428294 0.0050983983 0.36531574 -0.4797769 -0.14604391 -0.049068645 -0.027697504 0.485457 -0.21478713 -0.08964778 0.20146224 -0.15796502 0.61293197 0.16942118 -0.10127174 0.008010683 0.07543263 0.17320167 0.13743296 -0.23563007 -0.17790087 -0.06689084 0.31933376 0.6723387 0.14329547 -0.31061834 -0.3878455 -0.35172817 -0.12531082 -0.31321475 -0.30083042 0.29832524 0.1637218 -0.12594241 -0.3133818 0.52853036 0.3207859 -0.11922263 -0.9070626 0.5234662 0.011715225 0.11502713 -0.05229298 0.18897466 0.6322231 0.80258113 -0.052083544 0.16096096 -0.2207849 -0.034700338 0.07985216 0.23856604 -0.21492513 0.24963881 -0.32672232 0.6993426 0.5297646
1310 -0.12017389 0.25017992 -0.071878985 -0.17616317 -0.15210266 0.21806577 0.10017296 -0.16892701 -0.32223853 -0.0074323723 -0.09919118 -0.18612084 -0.12795688 -0.27792278 0.6319381 -0.28719598 0.22542591 0.16295598 -0.14125882 0.14082244 0.6713272 -0.47511876 0.15592073 0.83179075 -0.19864994 0.6154994 0.17505747 0.47890764 0.020108562 0.11389809 0.7555506 -0.059380524 -0.07573793 -0.15198492 0.29316342 -0.021882493 0.21818174 -0.5092867 -0.19653547 0.4285129 0.23917341 -0.14923 -0.072027326 -0.17940345 0.1391303 -0.23282124 0.0107812 -0.19115248 -0.22747295 -0.09116198 -0.60232913 0.33919364 0.39023888 0.0802803 -0.6585185 -0.83011436 -0.13332348 0.23687844 0.19998428 0.38829654 0.022666693 -0.23280467 -0.01693013 0.3252845
434 0.10702657 -0.40456244 0.065069914 0.3470967 0.3118883 0.58555186 0.3644246 0.51254904 0.13303988 0.17445599 0.39550993 0.0685907 -0.12803924 -0.15400204 0.26059124 -0.12887567 0.17440018 -0.09271941 -0.09812597 -0.3333148 0.33253548 -0.44584 -0.34499136 0.28326416 -0.3149121 0.49124297 -0.14873955 0.092073016 -0.21158986 0.07040962 0.47321686 0.32828793 0.5398472 -0.9086196 0.097855456 -0.19959693 0.115384035 -0.21106297 0.05699323 0.08756546 -0.0848219 -0.5330472 -0.2048245 0.17553522 -0.115163036 0.18419667 -0.18701862 0.17708878 -0.22531107 0.39226738 -0.6050934 0.70455146 0.27236775 -0.28605014 0.17388055 -0.10081427 -0.57943755 0.37775323 -0.21590993 0.036901698 -0.44296977 -0.19966656 0.14464897 -0.07152605
890 0.11126469 0.2866465 0.06368487 -0.06223381 -0.13049065 -0.092726365 0.058407683 -0.19412623 -0.3708022 -0.072926044 0.7043344 -0.123727776 -0.40851852 -1.077704 0.46174413 -0.50480855 0.12145852 0.35252187 0.21741131 0.04554037 0.23810431 0.2497801 -0.3681077 -0.23781028 -0.36007756 -0.15472922 -0.46826896 -0.17376634 0.03389237 -0.31199136 0.57232606 0.32294565 -0.70623755 -0.22164407 -0.009420867 0.17845374 -0.9280402 0.20180948 -0.072727025 -0.16434008 -0.6332267 -0.17436936 -0.31079426 0.09764972 0.1423187 0.4295266 0.12959287 -0.21486458 0.3951552 1.2725891 0.5288825 0.94688016 0.6279439 -0.21311012 -0.26775867 -0.46898055 0.47598663 -0.16368376 -0.09677085 -0.15342638 0.6637416 0.5558034 -0.09549328 0.86449146
818 0.40472698 0.064182356 -0.28533873 0.4772852 -0.038991556 0.13483544 0.8459746 -0.1770626 -0.45818517 -0.32626545 0.06636247 0.20572019 -0.09552103 -0.6504568 0.36849248 -0.19907981 0.009199681 0.50387186 -0.5949288 0.27425706 0.31872672 0.24527325 0.08658406 -0.13130844 -0.25273603 0.28446054 -0.3697757 0.0923266 0.18212515 -0.45556688 0.4100583 0.29834136 -0.14263508 -0.5198936 -0.10818367 -0.22816087 -0.6510956 0.26643938 0.54990625 0.05035779 0.1299328 -0.30437 -0.030486561 0.25604877 0.22580491 0.21983007 -0.42549086 -0.14661276 0.76152444 -0.22464168 0.09875746 0.6274442 -0.14390889 -0.1032001 0.20032851 0.24189463 -0.14778773 0.14570019 -0.28393805 -0.530913 -0.50443417 0.070393875 -0.034076694 -0.46417463
61 -0.66980684 -0.15952559 0.18930894 -0.2741749 0.39380923 -0.07670962 0.4128454 0.46625304 -0.20473553 -0.3516597 0.3625823 0.027981129 -0.13299377 -0.261153 0.7021377 -0.24858789 0.49687833 0.53011054 0.19360492 0.5172485 0.34712365 0.15343547 0.117579915 0.13361496 -0.26505786 0.34455228 -0.11868713 0.25908777 -0.09988707 -0.14996497 -0.11891546 -0.26962715 0.021489928 -0.5295889 0.50740767 -0.1512321 -0.5939742 0.07654014 0.0359688 0.8220493 -0.5474723 -0.31916878 0.30017284 -0.43136376 -0.20664738 0.09159957 0.08742303 -0.36882663 0.948486 0.13129787 0.22872113 0.12075239 -0.30750775 0.2300453 0.123370714 -0.36849305 0.1765324 -0.3102007 0.1666067 -0.09061569 -0.2834655 0.07085083 -0.17899206 -0.26396927
221 0.44583958 -0.51435643 0.68343925 -0.17178108 0.23810706 0.19344258 0.024494894 -0.010945892 0.16392083 -0.14412178 -0.30182844 0.105391555 -0.3844007 -0.30392614 0.70941603 -0.4354994 0.17244977 0.33123863 -0.12232547 0.58067244 0.3671534 0.63512486 -0.3258082 0.009811585 -0.21832092 0.15376593 0.009831648 0.100174695 -0.33473223 0.1909458 -0.36958197 -0.4662872 -0.085214056 -0.43009585 0.32379416 0.19386254 -1.071665 -0.1180076 -0.32497612 0.25746718 0.23660909 0.04945005 -0.12660266 0.0070262 0.55357087 0.04840553 -0.07090386 -0.08378705 0.18386471 0.31185505 -0.2249201 -0.07275824 -0.15281554 0.47399187 0.06691811 -0.46220577 -0.6290264 0.028659504 0.029914098 -0.22366308 -0.20945475 -0.3806157 -0.18204992 -0.055380996
1995 0.55927646 0.0067042 0.32407048 -0.54898435 0.22154395 -0.08547493 0.3810186 -0.05464281 -0.17713086 -0.10294537 0.21192072 0.61570054 0.11362405 -0.453814 0.6436243 -0.527134 0.5206717 0.8717576 -0.5421893 0.2923189 -0.12544 0.39790964 0.31935078 0.4799241 0.08813177 -0.3293369 0.38866264 0.31679082 0.26454294 0.13493055 0.2809797 0.23151883 -0.5112624 -0.338889 0.08495734 0.4168737 0.47808513 0.31060633 -0.42000633 0.800062 -0.35928425 0.32433894 -0.6014606 0.42482919 0.16784859 0.11514582 0.8940796 0.031826474 0.12195342 0.1720496 -0.19066857 0.2729393 0.539209 -0.4299369 0.17363857 0.4343285 -0.32366216 -0.63621014 0.4138702 -0.14793454 -0.4521073 -0.21942082 0.15870439 0.20261301
555 0.72979885 -0.3987921 0.13493621 0.08620198 0.8742899 0.21388336 -0.051803954 0.08588622 -0.25714546 -0.1841553 0.049530525 -0.5379573 -0.10119967 -0.81162244 0.07466211 -0.058232535 -0.051184252 0.55739576 -0.028338538 0.1111052 -0.26347375 -0.01610459 0.37674895 0.9128375 -0.20337576 0.07712305 0.323681 -0.41857246 -0.21484795 -0.07067851 0.20110019 0.20451167 0.08725922 -0.15741631 0.20024857 -0.7616317 0.15174265 -0.7854149 0.13015959 0.8142057 -0.58007294 -0.51896125 -0.1060614 -0.43917975 0.18544865 -0.482846 0.19916041 -0.41880745 0.3760431 0.45665726 -0.33313864 0.5323108 0.29831803 -0.5167978 -0.23813596 -0.58459854 -1.1812531 -0.40687743 0.06252217 -0.096151255 -0.32671514 -0.13790484 -0.5055469 0.1308878
2126 -0.16474661 0.0059540165 -0.038838554 -0.06213032 0.86454207 0.36292866 0.31424263 0.112897746 -0.060996488 0.6005234 -0.7480597 -0.0408446 -0.24642424 0.011874735 0.43582168 -0.4635349 0.016524268 0.24303694 -0.058641233 0.4221752 0.14226112 -0.09273854 0.2919221 0.10706658 0.19154638 0.08043103 -0.44151297 -0.057317633 0.16463076 0.12485574 0.76751524 0.20552424 -0.117178634 -0.006515994 -0.2974359 -0.35463887 -0.57035846 -0.5474295 0.35271424 0.53255033 -0.094663896 -0.4540506 0.33115304 0.3896412 -0.36305404 -0.72063106 0.5238629 0.013876814 0.025642581 0.017183363 0.12015138 0.36773205 0.57622844 -0.21054122 0.104069814 0.01793998 -0.19848484 0.24877644 0.18821333 -0.20101602 0.18789233 -0.17233938 0.3956231 0.5368977
